/*
 * Copyright (c) 2026 EdgeImpulse Inc.
 *
 * Generated by Edge Impulse and licensed under the applicable Edge Impulse
 * Terms of Service. Community and Professional Terms of Service
 * (https://edgeimpulse.com/legal/terms-of-service) or Enterprise Terms of
 * Service (https://edgeimpulse.com/legal/enterprise-terms-of-service),
 * according to your product plan subscription (the “License”).
 *
 * This software, documentation and other associated files (collectively referred
 * to as the “Software”) is a single SDK variation generated by the Edge Impulse
 * platform and requires an active paid Edge Impulse subscription to use this
 * Software for any purpose.
 *
 * You may NOT use this Software unless you have an active Edge Impulse subscription
 * that meets the eligibility requirements for the applicable License, subject to
 * your full and continued compliance with the terms and conditions of the License,
 * including without limitation any usage restrictions under the applicable License.
 *
 * If you do not have an active Edge Impulse product plan subscription, or if use
 * of this Software exceeds the usage limitations of your Edge Impulse product plan
 * subscription, you are not permitted to use this Software and must immediately
 * delete and erase all copies of this Software within your control or possession.
 * Edge Impulse reserves all rights and remedies available to enforce its rights.
 *
 * Unless required by applicable law or agreed to in writing, the Software is
 * distributed on an "AS IS" BASIS, WITHOUT WARRANTIES OR CONDITIONS OF ANY KIND,
 * either express or implied. See the License for the specific language governing
 * permissions, disclaimers and limitations under the License.
 */
// Generated on: 21.02.2026 12:14:00

#include <stdio.h>
#include <stdlib.h>
#include "edge-impulse-sdk/tensorflow/lite/c/builtin_op_data.h"
#include "edge-impulse-sdk/tensorflow/lite/c/common.h"
#include "edge-impulse-sdk/tensorflow/lite/micro/micro_mutable_op_resolver.h"
#include "edge-impulse-sdk/porting/ei_classifier_porting.h"

#if EI_CLASSIFIER_PRINT_STATE
#if defined(__cplusplus) && EI_C_LINKAGE == 1
extern "C" {
    extern void ei_printf(const char *format, ...);
}
#else
extern void ei_printf(const char *format, ...);
#endif
#endif

#define STRINGIZE(x) #x
#define STRINGIZE_VALUE_OF(x) STRINGIZE(x)

#if defined (__GNUC__)  /* GNU compiler */
#define ALIGN(X) __attribute__((aligned(X)))
#define DEFINE_SECTION(x) __attribute__((section(x)))
#elif defined (_MSC_VER)
#define ALIGN(X) __declspec(align(X))
#elif defined (__TASKING__) /* TASKING Compiler */
#define ALIGN(X) __align(X)
#define DEFINE_SECTION(x) __attribute__((section(x)))
#elif defined (__ARMCC_VERSION) /* Arm Compiler */
#define ALIGN(X) __ALIGNED(x)
#define DEFINE_SECTION(x) __attribute__((section(x)))
#elif defined (__ICCARM__) /* IAR Compiler */
#define ALIGN(x) __attribute__((aligned(x)))
#define DEFINE_SECTION(x) __attribute__((section(x)))
#elif defined (__clang__) /* LLVM/Clang Compiler */
#define ALIGN(X) __ALIGNED(x)
#define DEFINE_SECTION(x) __attribute__((section(x)))
#endif

#if defined(EI_MODEL_SECTION) && (defined(__GNUC__) || defined(__clang__))
#define MODEL_SECTION(X) __attribute__((section(STRINGIZE_VALUE_OF(X))))
#else
#define MODEL_SECTION(X)
#endif

#ifndef EI_MAX_SCRATCH_BUFFER_COUNT
#ifndef CONFIG_IDF_TARGET_ESP32S3
#define EI_MAX_SCRATCH_BUFFER_COUNT 14
#else
#define EI_MAX_SCRATCH_BUFFER_COUNT 28
#endif // CONFIG_IDF_TARGET_ESP32S3
#endif // EI_MAX_SCRATCH_BUFFER_COUNT

#ifndef EI_MAX_OVERFLOW_BUFFER_COUNT
#define EI_MAX_OVERFLOW_BUFFER_COUNT 10
#endif // EI_MAX_OVERFLOW_BUFFER_COUNT

using namespace tflite;
using namespace tflite::ops;
using namespace tflite::ops::micro;

namespace {

#if defined(EI_CLASSIFIER_ALLOCATION_STATIC_HIMAX) || defined(EI_CLASSIFIER_ALLOCATION_STATIC_HIMAX_GNU)
constexpr int kTensorArenaSize = 242624;
#else
constexpr int kTensorArenaSize = 241600;
#endif

#if defined(EI_CLASSIFIER_ALLOCATION_STATIC)
#if defined (EI_TENSOR_ARENA_LOCATION)
uint8_t tensor_arena[kTensorArenaSize] ALIGN(16) DEFINE_SECTION(STRINGIZE_VALUE_OF(EI_TENSOR_ARENA_LOCATION));
#else
uint8_t tensor_arena[kTensorArenaSize] ALIGN(16);
#endif
#elif defined(EI_CLASSIFIER_ALLOCATION_STATIC_HIMAX)
#pragma Bss(".tensor_arena")
uint8_t tensor_arena[kTensorArenaSize] ALIGN(16);
#pragma Bss()
#elif defined(EI_CLASSIFIER_ALLOCATION_STATIC_HIMAX_GNU)
uint8_t tensor_arena[kTensorArenaSize] ALIGN(16) __attribute__((section(".tensor_arena")));
#else
#define EI_CLASSIFIER_ALLOCATION_HEAP 1
uint8_t* tensor_arena = NULL;
#endif

static uint8_t* tensor_boundary;
static uint8_t* current_location;

template <int SZ, class T> struct TfArray {
  int sz; T elem[SZ];
};

enum used_operators_e {
  OP_CONV_2D, OP_DEPTHWISE_CONV_2D, OP_PAD, OP_ADD, OP_SOFTMAX,  OP_LAST
};

struct TensorInfo_t { // subset of TfLiteTensor used for initialization from constant memory
  TfLiteAllocationType allocation_type;
  TfLiteType type;
  void* data;
  TfLiteIntArray* dims;
  size_t bytes;
  TfLiteQuantization quantization;
};

typedef struct {
  TfLiteTensor tensor;
  int16_t index;
} TfLiteTensorWithIndex;

typedef struct {
  TfLiteEvalTensor tensor;
  int16_t index;
} TfLiteEvalTensorWithIndex;

TfLiteContext ctx{};
static const int MAX_TFL_TENSOR_COUNT = 4;
static TfLiteTensorWithIndex tflTensors[MAX_TFL_TENSOR_COUNT];
static const int MAX_TFL_EVAL_COUNT = 4;
static TfLiteEvalTensorWithIndex tflEvalTensors[MAX_TFL_EVAL_COUNT];
TfLiteRegistration registrations[OP_LAST];

namespace g0 {
const TfArray<4, int> tensor_dimension0 = { 4, { 1,96,96,1 } };
const TfArray<1, float> quant0_scale = { 1, { 0.0039215688593685627, } };
const TfArray<1, int> quant0_zero = { 1, { -128 } };
const TfLiteAffineQuantization quant0 = { (TfLiteFloatArray*)&quant0_scale, (TfLiteIntArray*)&quant0_zero, 0 };
const MODEL_SECTION(EI_MODEL_SECTION) ALIGN(16) int32_t tensor_data1[4*2] = { 
  0, 0, 
  0, 1, 
  0, 1, 
  0, 0, 
};
const TfArray<2, int> tensor_dimension1 = { 2, { 4,2 } };
const MODEL_SECTION(EI_MODEL_SECTION) ALIGN(16) int32_t tensor_data2[7] = { 20659, -34721, -31351, -28611, -29492, -40023, -22290, };
const TfArray<1, int> tensor_dimension2 = { 1, { 7 } };
const TfArray<7, float> quant2_scale = { 7, { 0.00022956756583880633, 0.00019246689043939114, 0.00019561732187867165, 0.00022347501362673938, 0.00019472278654575348, 0.00016299288836307824, 0.00025596845080144703, } };
const TfArray<7, int> quant2_zero = { 7, { 0,0,0,0,0,0,0 } };
const TfLiteAffineQuantization quant2 = { (TfLiteFloatArray*)&quant2_scale, (TfLiteIntArray*)&quant2_zero, 0 };
const MODEL_SECTION(EI_MODEL_SECTION) ALIGN(16) int8_t tensor_data3[7*1*1*32] = { 
  /* [0][0][][] */ 15,-74,30,-2,-58,-37,4,47,-34,-61,5,68,88,-41,-23,27,11,58,4,-127,30,-62,-49,-57,49,35,-27,109,28,-102,115,-59, 
  /* [1][0][][] */ 46,-80,24,-7,32,-26,42,-88,58,30,-83,-49,-127,107,86,88,-37,38,52,-56,56,61,-9,16,-32,84,103,8,1,-29,-49,-3, 
  /* [2][0][][] */ -7,-79,106,88,34,-56,74,63,-85,94,-92,-25,15,-12,-10,-68,-16,-9,97,-112,-23,105,-87,9,23,-36,70,-44,-127,35,1,43, 
  /* [3][0][][] */ 73,18,-12,19,22,-68,50,-24,-127,61,36,-55,-22,4,-49,36,-61,70,-31,45,6,21,94,12,-3,-97,-52,-94,5,-32,8,50, 
  /* [4][0][][] */ -32,71,-6,103,108,-89,-40,-38,-25,85,75,1,-47,-4,-36,-32,-36,39,108,-27,-76,50,-127,18,-17,54,-66,15,-94,100,-55,-68, 
  /* [5][0][][] */ 67,-39,-43,92,-30,100,110,79,-123,-49,127,-11,-99,-10,7,-100,-89,3,27,-19,127,101,-111,42,56,-91,109,91,-69,-41,-99,5, 
  /* [6][0][][] */ 72,-11,-10,32,-49,-53,-35,1,58,-60,18,-62,-8,-22,13,61,20,-10,46,-60,-61,75,29,54,17,-36,-54,-77,-127,6,-73,37, 
};
const TfArray<4, int> tensor_dimension3 = { 4, { 7,1,1,32 } };
const TfArray<7, float> quant3_scale = { 7, { 0.0050036460161209106, 0.0041950009763240814, 0.004263667855411768, 0.0048708529211580753, 0.0042441706173121929, 0.0035525867715477943, 0.0055790785700082779, } };
const TfLiteAffineQuantization quant3 = { (TfLiteFloatArray*)&quant3_scale, (TfLiteIntArray*)&g0::quant2_zero, 0 };
const MODEL_SECTION(EI_MODEL_SECTION) ALIGN(16) int32_t tensor_data4[32] = { 746, -727, 104, 400, -94, 69, 492, 129, -206, -175, 182, 418, 1516, 326, 431, 465, -19, 577, 509, -248, -264, 392, -403, 267, 26, 322, -132, 2010, 1443, -351, 1951, -22, };
const TfArray<1, int> tensor_dimension4 = { 1, { 32 } };
const TfArray<32, float> quant4_scale = { 32, { 5.9330923249945045e-05, 8.5309628047980368e-05, 7.5183343142271042e-05, 6.2170074670575559e-05, 6.4085106714628637e-05, 7.9150471719913185e-05, 6.7195935116615146e-05, 6.3478117226622999e-05, 7.8979428508318961e-05, 7.9805584391579032e-05, 6.6966764279641211e-05, 6.7751578171737492e-05, 7.7597280323971063e-05, 9.0566660219337791e-05, 6.2351798987947404e-05, 6.2638842791784555e-05, 7.1199581725522876e-05, 7.5259238656144589e-05, 6.1386293964460492e-05, 8.3248793089296669e-05, 5.0377391744405031e-05, 5.7801957154879346e-05, 7.1972332079894841e-05, 6.323793058982119e-05, 4.6262019168352708e-05, 8.2057340478058904e-05, 6.4293300965800881e-05, 6.4316118368878961e-05, 9.4161099696066231e-05, 6.3735860749147832e-05, 9.2399866844061762e-05, 7.8393524745479226e-05, } };
const TfArray<32, int> quant4_zero = { 32, { 0,0,0,0,0,0,0,0,0,0,0,0,0,0,0,0,0,0,0,0,0,0,0,0,0,0,0,0,0,0,0,0 } };
const TfLiteAffineQuantization quant4 = { (TfLiteFloatArray*)&quant4_scale, (TfLiteIntArray*)&quant4_zero, 0 };
const MODEL_SECTION(EI_MODEL_SECTION) ALIGN(16) int8_t tensor_data5[32*1*1*96] = { 
  /* [0][0][][] */ -28,-18,104,19,76,-24,-103,-81,71,-124,-72,-68,61,30,-32,42,-95,-36,-61,-19,-25,-75,27,77,-56,-29,79,-8,96,17,-2,-96,38,-25,-50,1,-46,-54,-51,31,5,-78,-54,100,38,-71,98,-3,8,-35,-7,72,-32,-66,-121,88,4,53,116,-127,-53,62,-16,47,18,40,31,41,63,76,92,-65,101,-86,43,83,-75,34,-17,53,64,-48,98,-5,-44,-47,-39,12,46,117,18,-89,-13,72,30,48, 
  /* [1][0][][] */ -15,35,-52,-33,-23,50,-3,10,56,-54,-61,127,27,-27,8,32,48,18,-18,53,-23,12,23,13,21,-9,-30,48,-3,13,56,-16,41,72,1,6,7,3,-12,5,-2,15,-38,-48,15,34,-22,-61,-6,-41,31,-37,2,85,-9,-16,18,48,31,47,-48,92,-18,-42,-48,30,34,16,57,0,-6,11,-63,27,-40,28,39,-6,-13,16,-74,24,-30,-6,0,98,-30,-23,40,43,40,-5,73,78,19,-12, 
  /* [2][0][][] */ 30,9,-30,54,-13,-66,20,52,-58,50,-5,23,60,-5,45,-65,-73,-15,19,29,-48,-18,64,25,-18,48,70,3,-37,54,51,29,-55,-13,-48,-53,-48,48,55,-28,-127,-91,18,-11,-67,67,-14,-46,60,-27,68,-87,-23,-6,-25,8,-44,51,-30,-15,6,9,-25,37,58,32,25,38,-65,29,13,-35,22,-47,22,18,-44,-16,9,8,31,-52,2,-50,-10,-85,-5,-35,52,62,-25,37,-55,-79,-6,-60, 
  /* [3][0][][] */ 61,17,42,-28,-58,25,-110,45,48,22,56,30,83,86,59,21,56,76,-61,20,98,-36,-24,-92,3,-100,-30,91,39,-50,70,0,-65,-10,4,-36,-44,-7,43,82,-67,-56,-70,20,64,30,-22,-38,66,-96,60,-16,81,29,48,-46,-127,-78,-58,-51,-56,29,7,58,55,-10,-42,-18,-10,-56,23,86,34,-58,61,-30,34,53,90,-19,-58,-115,40,34,50,37,-11,-80,-42,59,21,-66,86,-83,-33,28, 
  /* [4][0][][] */ 83,92,18,8,10,-32,-36,48,27,46,27,99,38,-15,7,-8,2,6,-127,-1,78,-65,86,42,17,-43,65,-21,-19,32,2,-44,-2,99,18,-88,-84,-31,-67,90,-64,-1,15,-63,25,119,36,39,9,-38,2,-83,-33,12,-71,36,-27,-53,39,54,-26,-44,-38,-14,-19,55,14,-15,9,-64,-67,-31,-32,-11,97,30,55,-119,23,-29,8,-67,-34,-38,36,44,77,11,-63,-33,36,76,34,60,-24,-84, 
  /* [5][0][][] */ 45,-56,40,46,-3,-58,49,15,89,-43,3,-49,-1,61,23,8,52,26,-37,41,15,32,0,-55,-86,-21,-33,-57,20,7,-12,-45,13,-3,-44,17,-57,-27,19,-11,-34,-15,1,47,-28,-4,5,-31,-68,75,5,85,11,50,39,-20,67,21,-44,-10,23,-46,30,-46,-27,48,-18,20,42,-15,48,-49,-41,38,-30,-36,14,-36,-4,38,54,74,-14,127,-44,61,-3,22,28,-62,67,24,-8,-8,44,-10, 
  /* [6][0][][] */ 26,-15,109,66,-63,-40,-37,57,25,-119,25,-92,75,56,64,-49,26,-52,-37,67,-23,-127,93,43,-30,-100,8,-2,-13,-69,47,-82,-105,-57,-27,-61,12,28,-46,43,-2,45,27,8,-76,94,-36,-3,-84,-59,1,-43,57,-64,-24,-11,-14,-21,-19,63,-34,-20,64,-42,-9,75,74,-12,85,11,-47,14,51,-36,-43,-3,-36,-123,-8,8,48,-34,41,2,-24,-77,-4,-35,68,85,90,49,-53,-47,84,-54, 
  /* [7][0][][] */ 76,33,-5,-12,-76,67,-13,-13,81,19,-86,-39,40,-38,19,50,20,-11,5,69,25,10,-12,43,-58,83,28,47,-57,68,-35,1,32,16,36,75,-19,72,-4,-55,7,-70,19,37,32,-24,88,-36,33,-127,-78,1,-24,72,-11,22,84,-91,28,-63,25,-46,85,-99,-37,-31,26,29,-62,9,65,28,70,52,39,47,-40,66,-82,47,71,15,-34,-64,87,16,-55,61,50,12,84,59,-55,-82,-27,-38, 
  /* [8][0][][] */ -25,29,-48,-59,46,19,-23,-36,-2,20,20,51,-5,-41,-59,-52,-20,92,-35,10,-2,23,42,69,-47,67,15,46,-21,14,-61,68,87,-21,30,-18,86,-7,-24,25,94,59,-57,-67,-24,-27,-34,59,43,-1,-50,67,-39,18,-10,-62,69,73,-51,60,61,46,24,61,-24,-28,-47,47,-51,20,16,-14,40,33,-10,18,-11,127,28,35,9,35,-81,-47,16,44,51,-41,13,-46,-67,35,-45,-72,-66,52, 
  /* [9][0][][] */ 43,26,73,13,58,-82,-87,-37,-3,10,18,47,9,-39,-51,34,15,7,-91,-41,9,35,-36,-38,67,-33,21,32,-5,-25,-5,35,-13,29,20,-11,-76,-15,-9,21,-1,-7,51,-46,56,63,-39,30,25,-42,-24,-84,56,-84,-81,77,5,-23,6,10,-73,59,40,-26,-31,28,69,47,-17,64,58,-25,17,28,-25,-63,-39,-127,6,60,16,-19,77,-22,3,-69,28,3,55,27,-9,103,54,18,74,-98, 
  /* [10][0][][] */ -43,78,69,-57,-31,84,58,18,94,-16,14,-6,64,68,-48,-1,-69,69,-127,-39,15,35,56,-84,30,-3,-94,-60,-40,65,-65,-44,65,89,83,18,-15,-16,-25,55,-23,81,-113,-4,-49,-32,-13,-66,-4,-41,8,-65,48,83,-45,-24,-70,-41,37,-45,-31,73,108,20,72,-20,-96,-33,37,-32,-44,-30,62,21,-69,100,1,41,69,19,39,-26,27,126,-72,88,91,-20,39,32,14,-99,-22,-46,-15,-12, 
  /* [11][0][][] */ 68,5,-23,69,93,39,71,26,62,65,-71,122,1,-55,39,-47,-36,-69,63,41,17,59,25,-55,-68,-43,-25,45,51,-15,18,0,-51,-45,43,40,-34,58,-21,-49,-6,104,-61,28,-4,-85,-40,-56,108,94,70,127,-58,-54,22,28,-41,-9,-5,-71,-70,49,57,28,23,50,-21,27,50,37,-51,-32,28,75,-64,32,-59,30,-25,46,-74,5,-42,-10,24,-47,25,-4,-60,-4,0,-45,-58,-26,-39,-33, 
  /* [12][0][][] */ 28,29,-28,22,60,12,58,39,-64,91,5,6,-5,25,49,-18,-68,5,21,-14,17,14,10,58,-59,45,75,-67,59,32,-5,94,-2,-22,-2,62,19,5,36,-7,116,41,-92,-6,40,-48,1,84,-34,-60,-33,66,37,30,13,80,16,-28,36,20,72,79,18,57,72,20,-4,119,47,61,36,57,82,109,25,27,-19,45,-73,-52,-25,119,29,28,0,56,43,127,-44,-53,80,44,64,18,25,63, 
  /* [13][0][][] */ 49,-17,62,54,66,33,13,24,50,-108,26,-64,42,39,33,-21,-45,-64,-35,16,45,-42,63,-10,-7,-7,-9,30,-22,-61,44,-25,-10,38,-11,7,-46,-3,0,8,-43,25,17,-14,-127,23,5,-5,-10,92,-6,-54,-42,-30,-7,-71,-9,17,-22,-6,-41,16,-83,9,-12,-34,-12,23,-26,2,50,3,-60,9,-32,-29,-67,8,53,-11,48,-76,65,-14,-54,-90,33,59,15,-25,-40,26,21,-43,26,5, 
  /* [14][0][][] */ -38,-65,81,72,53,11,-43,-104,-30,-43,50,39,-40,-36,-40,-76,-42,-48,18,16,-10,21,-3,28,-67,-47,-45,41,-54,-93,-46,-4,70,-10,-30,19,61,85,11,-87,4,-56,36,38,-1,-82,48,-52,61,68,80,61,62,20,-18,-24,-16,-5,27,69,-28,-52,-16,45,-48,7,65,-72,-45,-49,-65,66,-27,51,4,-35,12,-73,42,33,54,38,-82,8,-127,-50,-83,69,87,6,77,-37,53,43,1,70, 
  /* [15][0][][] */ 18,-11,-15,60,113,-70,27,-89,15,-7,-50,-27,88,6,-50,-83,59,22,-43,39,35,19,55,102,82,48,45,74,41,47,66,-84,-2,10,-29,-40,-40,81,64,-34,27,71,20,-7,-3,-46,-21,-57,10,52,7,70,-53,-127,-34,2,58,71,-27,65,-53,-29,-50,97,-7,72,-46,-25,-53,5,55,-39,30,-33,52,-75,-5,70,75,66,-32,-3,-38,-90,-104,-47,-63,-38,74,50,-81,-37,20,125,-99,116, 
  /* [16][0][][] */ -57,-11,39,-41,34,68,2,15,-8,99,-70,30,-18,-41,-18,-45,73,82,112,44,52,69,-41,25,-36,86,-43,21,-51,10,15,21,-16,33,36,52,-18,49,-35,-63,43,-37,30,46,29,42,46,-2,-5,-29,4,112,-35,81,101,21,33,67,19,6,76,65,10,39,25,-12,-19,63,17,46,-31,-15,12,72,36,45,-14,127,-88,-23,-2,-11,23,-27,2,69,45,3,37,-16,-19,57,48,-29,-75,45, 
  /* [17][0][][] */ 56,-33,38,43,5,-84,-99,-35,43,-106,78,49,84,52,-62,50,-11,12,-13,73,-26,-32,36,-8,39,-9,-26,40,69,-17,15,14,-70,22,30,-26,-51,31,-41,18,-73,-8,15,14,14,50,60,-80,6,58,1,-75,14,-10,7,-30,-91,47,-28,-47,-29,-53,18,76,-32,-6,33,-61,-53,-10,80,47,27,-110,-17,53,78,-127,57,-21,22,-79,-20,-63,-61,32,67,-36,36,66,-47,-44,-16,97,38,-46, 
  /* [18][0][][] */ -61,85,80,-75,-1,-87,-111,21,-14,80,-60,7,-10,41,58,-23,15,-1,47,-8,79,10,33,-61,45,-73,15,90,37,44,11,25,10,-12,-58,-110,-10,44,-13,86,-71,8,-23,10,-83,15,16,24,44,-28,85,67,-62,-11,11,78,-69,42,3,-83,68,77,29,39,-32,-83,-17,64,47,-85,-32,88,-50,-15,-29,-79,50,33,16,-27,-37,-44,-3,-127,108,-26,62,30,-59,-32,-30,79,82,-53,51,3, 
  /* [19][0][][] */ 24,-2,44,32,28,-17,94,58,54,-23,0,55,-40,15,-25,28,58,-92,55,37,-13,46,-29,7,23,-27,18,-44,-55,-69,-25,54,46,-32,23,31,-8,-37,-11,-55,51,-66,-38,5,-6,14,50,-70,-41,40,-39,-46,-16,5,19,20,16,54,3,-12,16,-2,56,43,-42,4,0,15,21,50,31,-13,-20,-56,-32,-37,-27,-77,10,45,30,-52,-4,115,-46,-8,6,-4,40,18,3,34,13,127,49,-39, 
  /* [20][0][][] */ 8,57,85,104,-71,59,24,40,55,-18,-76,58,1,79,48,-65,-19,-97,-63,-40,37,-76,-71,-18,63,-69,-105,50,19,-5,-46,82,89,48,-21,57,14,-60,-31,-109,-109,-34,-51,-89,-32,-28,-45,81,32,-82,-127,43,33,78,-27,-23,81,50,67,104,91,-48,-72,-53,-25,-40,-11,14,-54,-50,-59,55,-70,-96,3,23,92,-5,97,94,92,21,67,31,28,78,-25,92,13,76,28,89,22,33,-26,-25, 
  /* [21][0][][] */ 63,69,70,-81,62,-84,16,15,0,-61,-49,-25,16,44,-39,-56,-109,-20,22,0,92,-26,70,-77,64,-91,0,74,25,19,2,-50,-33,20,-56,-127,112,80,-74,-4,-81,2,32,4,-94,-61,-44,95,15,-85,25,95,39,35,-115,31,-86,44,-16,62,51,-70,38,-3,78,33,-36,-60,-69,0,65,68,43,-15,72,52,-78,6,66,105,20,7,47,-103,41,-87,63,-84,-64,83,100,-82,-49,-101,67,-8, 
  /* [22][0][][] */ 29,-39,-48,-72,66,-23,64,-39,-81,58,-94,-106,75,-76,-80,-79,-17,63,-29,-23,37,-45,19,34,46,-10,-50,57,-40,-27,-32,-78,43,38,14,-21,30,-13,-52,-77,6,-33,-2,76,72,-96,73,-32,-34,-22,-16,-9,-40,-31,-39,51,-13,-3,-11,-84,72,-10,-44,-49,-34,7,-127,-54,58,68,-17,-11,-27,17,46,-86,17,38,33,64,47,-62,-38,-76,32,68,49,-16,-46,38,-45,35,-29,-12,-49,92, 
  /* [23][0][][] */ 28,-47,18,32,56,-94,-40,-78,50,-58,57,11,21,-59,8,-26,15,-1,-69,81,75,-32,86,-48,12,-37,77,31,61,51,51,-58,-38,35,28,-45,101,1,-66,43,-127,-7,14,-55,-54,-72,87,34,92,-75,-40,-3,66,-34,-58,75,-90,-2,90,-3,-71,-55,-4,-1,35,37,-113,-106,56,-10,95,-38,16,-29,-13,-61,33,50,82,103,-29,-109,38,-86,76,4,94,-65,-47,54,88,-28,64,-91,-14,100, 
  /* [24][0][][] */ -92,-61,-101,-64,-93,-114,-60,-98,55,100,75,34,96,54,-44,-127,-89,19,26,-52,90,-81,-59,-45,33,-29,50,41,83,41,-9,-49,5,0,44,29,-55,-75,57,-32,-83,-105,85,1,19,-52,20,45,-90,-22,-29,-3,62,41,52,-75,-6,59,18,-4,86,-4,12,83,-106,81,-55,-88,-103,48,-55,-24,-47,47,78,95,51,-84,-103,-89,-74,-66,-67,-100,-18,49,-16,-101,21,-108,-5,-83,-17,31,-85,52, 
  /* [25][0][][] */ -48,2,-50,-20,83,-59,-50,36,29,-127,27,35,32,-4,-44,18,16,67,57,-60,34,43,12,-8,54,-48,-42,37,75,-49,36,57,31,-81,18,71,31,-7,-34,-26,-76,78,15,-30,-25,56,32,63,-71,84,-45,43,34,-16,-21,-17,7,43,-50,107,54,-23,11,39,17,22,27,0,-94,-16,-7,-84,-5,-39,64,1,69,19,16,30,37,-2,-15,-23,-6,-15,-49,-29,3,-31,39,5,-42,-34,-47,-50, 
  /* [26][0][][] */ 17,-86,11,2,-80,3,-11,-13,-55,-123,83,13,-70,-33,4,-9,109,-30,-53,-49,18,25,73,20,41,18,2,45,25,-11,-65,-39,-31,-72,-75,-74,-31,68,-32,48,-100,69,69,13,-72,51,-38,94,-26,12,4,127,12,-60,-33,-74,43,51,35,23,34,-101,47,-12,82,-20,-28,3,-57,63,55,61,23,-57,-67,13,33,-77,-58,25,2,75,50,-20,64,-34,-25,35,-58,73,3,39,-65,-21,49,47, 
  /* [27][0][][] */ -19,2,-39,-43,-43,-20,73,-1,47,73,66,16,-25,35,117,-52,103,-16,3,-17,-40,50,-17,-11,-89,76,-112,10,70,23,-33,67,127,46,-32,2,-16,-21,-77,88,-37,26,13,44,67,-29,-12,46,41,92,92,-8,-49,-24,64,-36,92,49,-108,-54,21,14,-31,67,37,-30,-16,105,56,-11,-90,46,3,25,-35,-23,52,-1,59,63,87,34,42,6,-54,-47,-21,83,-12,-21,-48,-21,75,-3,107,76, 
  /* [28][0][][] */ 39,-4,45,57,-7,13,77,-12,10,-45,79,47,-42,-32,3,45,66,34,-10,43,1,19,-47,-32,-51,80,-58,-21,-5,-34,25,26,-7,5,45,116,-3,-19,3,-24,127,55,-4,15,-65,0,11,26,16,21,6,17,-24,-11,66,9,99,8,29,84,47,-22,-36,37,41,35,24,68,-15,35,-48,-1,23,42,-7,-6,-47,-43,-47,6,0,0,60,40,22,-59,42,-24,-26,-50,-26,-20,4,85,-5,-14, 
  /* [29][0][][] */ 52,49,26,-79,-58,-2,-127,19,36,34,-63,-4,77,-72,-20,-14,-55,115,29,-42,-57,21,50,-1,-5,9,-9,-14,-57,14,84,-1,25,7,-39,-52,-8,72,-3,116,-3,90,-32,56,12,79,-32,3,43,-14,66,-83,53,-46,98,57,-105,57,-22,81,-86,79,-39,-20,-37,-45,36,59,59,-64,19,-41,82,59,65,-6,84,-25,-9,29,-29,-82,6,-112,77,95,35,51,-21,78,48,58,-34,-14,17,31, 
  /* [30][0][][] */ 50,-19,-14,43,-8,25,85,35,51,-2,52,-35,-21,31,51,54,17,19,48,-29,31,-46,-37,38,-58,63,-24,67,16,-39,0,47,-10,-1,-34,65,-8,15,46,-31,119,26,-5,48,75,22,66,38,-78,46,11,-40,69,-13,14,73,13,-20,-37,22,-8,7,-27,31,-32,-14,3,127,-12,53,34,2,-19,66,44,10,1,-56,-31,-30,38,69,-46,30,-31,46,-32,123,-4,-62,59,69,-18,58,18,-51, 
  /* [31][0][][] */ 44,-66,50,86,17,24,-87,-73,-36,-32,-67,-127,78,-60,-42,63,-56,-60,21,55,36,-1,-4,62,19,-95,52,34,-38,-34,37,34,-16,17,-37,-47,104,-6,-14,-57,-3,-61,-6,39,29,-42,4,35,50,-36,65,-5,-44,-66,-114,46,-101,50,39,-2,-9,7,71,-28,59,76,-57,-65,67,-29,-46,24,-14,-26,16,12,-52,27,39,72,-17,-42,62,30,30,24,-29,-31,10,-4,-28,-6,-35,49,13,-13, 
};
const TfArray<4, int> tensor_dimension5 = { 4, { 32,1,1,96 } };
const TfArray<32, float> quant5_scale = { 32, { 0.0025215642526745796, 0.0036256590392440557, 0.0031952920835465193, 0.0026422282680869102, 0.0027236170135438442, 0.003363894997164607, 0.0028558271005749702, 0.0026978200767189264, 0.0033566257916390896, 0.0033917373511940241, 0.0028460873290896416, 0.002879441948607564, 0.0032978844828903675, 0.0038490828592330217, 0.0026499514933675528, 0.0026621508877724409, 0.0030259822960942984, 0.0031985174864530563, 0.0026089174207299948, 0.0035380737390369177, 0.0021410391200333834, 0.0024565830826759338, 0.0030588239897042513, 0.0026876118499785662, 0.0019661358091980219, 0.0034874370321631432, 0.0027324652764946222, 0.0027334350161254406, 0.0040018465369939804, 0.00270877406001091, 0.0039269942790269852, 0.0033317247871309519, } };
const TfLiteAffineQuantization quant5 = { (TfLiteFloatArray*)&quant5_scale, (TfLiteIntArray*)&g0::quant4_zero, 0 };
const MODEL_SECTION(EI_MODEL_SECTION) ALIGN(16) int32_t tensor_data6[96] = { 1823, -116, 3292, 6312, 3559, -2442, 5366, -1176, -2278, 92, 3980, -1178, 4024, 4578, 2462, 2675, -243, -115, -534, 4947, 2890, -586, 3071, -179, -1258, 5275, 1591, 1877, 6692, 2208, 4597, 2392, 1268, 4514, 5868, 5546, -679, 3604, 2033, -3713, 799, 1333, -46, 2203, -1381, 139, -2053, 1002, -6987, 2432, 1002, -2384, 9468, -571, 3144, 1381, 2203, 1970, -1867, -1531, 530, 1579, 522, 6421, 6580, 3246, 2539, 8777, 3386, -603, 4065, 5219, 3638, -768, 3605, 8336, -63, -2821, 634, 1184, 6501, 3536, -257, -1643, 1198, 400, 1929, -2752, 3779, -345, 3174, 864, 5, -1776, -147, 1201, };
const TfArray<1, int> tensor_dimension6 = { 1, { 96 } };
const TfArray<96, float> quant6_scale = { 96, { 0.00012780482938978821, 0.00020090256293769926, 0.00018360411922913045, 0.00013010059774387628, 0.00018925726180896163, 0.00015712942695245147, 0.00014802672376390547, 0.00020487152505666018, 0.00016593249165453017, 0.00022774323588237166, 0.00018073484534397721, 0.00024807907175272703, 0.0001422324130544439, 0.00014137245307210833, 0.00014348006516229361, 0.00014275875582825392, 0.00023496791254729033, 0.00028976768953725696, 0.00024881368153728545, 0.00011716348672052845, 0.0001560389791848138, 0.00017687148647382855, 0.00011589371570153162, 0.00019021086336579174, 0.00019281650020275265, 0.00014113639190327376, 0.00017154669330921024, 0.00019828137010335922, 0.00011423358955653384, 0.00016385652997996658, 0.00011298073513898998, 0.0001505921536590904, 0.0002512820647098124, 0.00012872350635007024, 0.00010019715409725904, 0.00012822798453271389, 0.00019456073641777039, 0.0001282944722333923, 0.00016959322965703905, 0.00014651185483671725, 0.00021505812765099108, 0.00015053435345180333, 0.0001853492867667228, 0.00012451241491362453, 0.00016968869022093713, 0.00012347733718343079, 0.00012260455696377903, 0.00017478119116276503, 9.6368370577692986e-05, 0.00015820223779883236, 0.00025971443392336369, 0.00014139924314804375, 7.8135788498912007e-05, 0.00016856873116921633, 0.00016528635751456022, 0.0002071816852549091, 0.0001572368637425825, 0.00019536004401743412, 0.00011874570191139355, 0.00017710070824250579, 0.00017286888032685965, 0.00017243396723642945, 0.00024449580814689398, 0.0001130872406065464, 0.00010975135228363797, 0.00013550932635553181, 0.00016297839465551078, 9.6189083706121892e-05, 0.00018080305017065257, 0.00014477841614279896, 0.00012038855493301526, 0.00013439962640404701, 0.00013844098430126905, 0.00018883806478697807, 0.00020079399109818041, 0.00010053673759102821, 0.00011665656347759068, 0.00019039938342757523, 0.0001721397420624271, 0.00014920425019226968, 0.00013146735727787018, 0.00016719357518013567, 0.00014335448213387281, 0.00020036945352330804, 0.00017730359104461968, 0.00017816448234952986, 0.00014901914983056486, 0.00014146602188702673, 0.00015862612053751945, 0.00015112607798073441, 0.00019061515922658145, 0.00026111333863809705, 0.00012449528730940074, 0.00017381832003593445, 0.00020065029093530029, 0.00023753578716423362, } };
const TfArray<96, int> quant6_zero = { 96, { 0,0,0,0,0,0,0,0,0,0,0,0,0,0,0,0,0,0,0,0,0,0,0,0,0,0,0,0,0,0,0,0,0,0,0,0,0,0,0,0,0,0,0,0,0,0,0,0,0,0,0,0,0,0,0,0,0,0,0,0,0,0,0,0,0,0,0,0,0,0,0,0,0,0,0,0,0,0,0,0,0,0,0,0,0,0,0,0,0,0,0,0,0,0,0,0 } };
const TfLiteAffineQuantization quant6 = { (TfLiteFloatArray*)&quant6_scale, (TfLiteIntArray*)&quant6_zero, 0 };
const MODEL_SECTION(EI_MODEL_SECTION) ALIGN(16) int8_t tensor_data7[96*1*1*16] = { 
  /* [0][0][][] */ -34,48,-81,69,48,-48,72,102,-42,-15,10,-127,115,116,-91,46, 
  /* [1][0][][] */ -29,0,-55,-29,-5,23,21,-127,30,-37,-56,-83,7,-53,-70,-4, 
  /* [2][0][][] */ -35,-41,7,63,16,31,-100,127,-12,-4,80,-72,-25,-78,-69,54, 
  /* [3][0][][] */ 87,-116,60,40,-9,-45,-31,127,13,52,83,7,-4,59,-8,22, 
  /* [4][0][][] */ -54,-39,5,55,-64,-19,-21,-127,16,10,-3,-27,44,37,63,80, 
  /* [5][0][][] */ 127,31,-19,-33,-92,34,4,82,2,-8,50,97,107,49,-69,-23, 
  /* [6][0][][] */ -4,-18,-38,-45,-101,2,-4,-63,-18,-91,-15,42,46,53,127,-44, 
  /* [7][0][][] */ -77,46,-11,-71,-3,-59,-99,4,-97,59,-83,-55,-127,-48,45,87, 
  /* [8][0][][] */ 53,43,89,5,56,30,57,3,71,-49,32,-15,-127,-20,-100,-19, 
  /* [9][0][][] */ -45,55,32,-32,-22,-24,17,-14,-27,42,-29,-1,56,127,3,30, 
  /* [10][0][][] */ 66,42,-49,73,-27,-7,64,-13,-50,-66,-45,-127,-112,-69,2,19, 
  /* [11][0][][] */ 15,25,64,-19,-5,-44,27,127,-89,18,-14,3,0,0,56,104, 
  /* [12][0][][] */ -79,-51,8,-2,16,-33,127,31,-38,-7,-19,-45,6,67,-81,105, 
  /* [13][0][][] */ 15,25,-9,27,89,59,89,120,27,15,-76,-79,-46,44,-127,-47, 
  /* [14][0][][] */ -100,97,-14,-2,-15,42,50,30,-40,27,127,17,-112,18,-39,51, 
  /* [15][0][][] */ -2,-6,-127,-61,74,-50,-86,-15,-13,-38,-6,-82,0,-69,-52,56, 
  /* [16][0][][] */ 107,-37,4,37,12,-39,58,-15,-31,48,127,39,53,-13,-23,-20, 
  /* [17][0][][] */ -5,26,-3,-53,-9,-45,100,-127,3,-29,-55,1,66,32,3,-1, 
  /* [18][0][][] */ 5,104,-17,-27,32,-64,-7,-88,-42,127,-31,-8,8,34,-22,-8, 
  /* [19][0][][] */ -48,-93,127,-70,13,-78,11,-13,55,45,56,73,22,13,41,-29, 
  /* [20][0][][] */ -44,82,55,26,5,-17,23,-40,73,5,83,-33,-127,-40,-99,-21, 
  /* [21][0][][] */ -30,53,33,25,62,30,77,20,-127,43,-25,24,-16,32,-37,-27, 
  /* [22][0][][] */ -4,-114,52,25,19,-127,95,-11,23,-63,-69,-92,36,-94,-103,-76, 
  /* [23][0][][] */ -80,-109,71,90,38,-13,38,-48,25,-32,68,-1,26,74,67,127, 
  /* [24][0][][] */ -23,-29,-1,82,36,-28,-54,-127,84,11,-25,-10,2,0,-45,-24, 
  /* [25][0][][] */ 0,44,46,-51,-26,9,27,-48,-59,90,-49,10,38,127,65,0, 
  /* [26][0][][] */ -76,65,4,30,32,-104,-35,-21,6,36,-1,82,9,8,-93,127, 
  /* [27][0][][] */ -37,-127,-41,23,-44,58,-3,-65,12,-10,30,-31,24,-45,-103,-20, 
  /* [28][0][][] */ -46,-10,33,95,26,0,-39,-127,-104,39,85,-20,50,3,-50,-45, 
  /* [29][0][][] */ -126,127,1,-50,-26,37,-112,-88,-41,-29,-13,14,25,-61,-106,63, 
  /* [30][0][][] */ 27,87,-71,60,-126,-127,-64,-37,-46,7,5,-124,114,40,-7,92, 
  /* [31][0][][] */ 127,8,-68,-32,-46,43,125,33,-56,1,74,50,35,22,-24,12, 
  /* [32][0][][] */ -22,-26,127,-35,6,54,51,13,-17,-22,-22,28,-3,24,33,20, 
  /* [33][0][][] */ -28,43,-36,-108,-37,-10,127,-9,21,-59,24,-120,117,103,-53,35, 
  /* [34][0][][] */ -66,8,107,-20,30,-42,123,-20,-127,4,52,-53,65,74,-29,-26, 
  /* [35][0][][] */ 12,9,-15,18,-69,79,-30,-36,-15,119,-1,127,-81,45,35,42, 
  /* [36][0][][] */ 5,-71,127,-84,-45,51,-37,-24,-7,34,-31,117,15,-87,-40,41, 
  /* [37][0][][] */ 63,-22,72,-22,123,-95,-59,6,-55,127,-107,-9,-58,-82,80,-53, 
  /* [38][0][][] */ 60,57,-15,-70,-24,-23,-127,47,-82,47,-73,-25,-55,-60,-40,52, 
  /* [39][0][][] */ -76,43,-51,-52,-44,-62,87,48,-127,-39,16,65,33,2,2,47, 
  /* [40][0][][] */ 127,11,3,-45,-62,33,-17,-4,-66,-39,-78,-95,34,46,31,4, 
  /* [41][0][][] */ 91,-97,-92,-24,-6,12,-43,-60,37,-47,22,-56,127,-64,69,-56, 
  /* [42][0][][] */ -14,-83,-32,127,0,-77,-72,14,-4,26,17,53,-72,56,-57,0, 
  /* [43][0][][] */ -108,-58,-51,-127,-106,7,-9,88,77,-98,-44,86,-51,-73,-26,120, 
  /* [44][0][][] */ -83,61,74,-26,-8,-77,16,91,121,-111,101,87,127,65,-22,-8, 
  /* [45][0][][] */ 54,94,-109,96,127,-110,-9,-71,79,-91,94,-91,-18,-11,-70,80, 
  /* [46][0][][] */ -25,-25,28,6,88,-12,20,18,5,127,-48,-104,31,68,-26,58, 
  /* [47][0][][] */ 66,-41,-66,7,39,-44,-52,-50,-25,119,-27,53,-1,-127,-79,11, 
  /* [48][0][][] */ -22,34,-29,-127,-24,-71,114,-47,18,-4,-46,59,37,71,9,78, 
  /* [49][0][][] */ -33,76,-66,79,57,-76,102,39,38,62,20,-109,-55,33,127,-91, 
  /* [50][0][][] */ 8,46,-13,-10,-127,-7,-58,-59,61,60,23,15,-37,-36,-5,17, 
  /* [51][0][][] */ 109,-90,-11,54,-33,92,-127,-41,67,9,-63,77,-32,-93,-27,12, 
  /* [52][0][][] */ -23,-23,25,7,-21,-124,-109,28,-17,-107,-32,-117,34,-127,-36,92, 
  /* [53][0][][] */ 17,71,92,-95,37,104,86,-33,39,9,-36,-84,79,-127,-29,25, 
  /* [54][0][][] */ 30,127,15,12,1,-82,-109,62,-22,-20,-72,127,78,84,26,44, 
  /* [55][0][][] */ -69,-17,34,16,35,-81,69,103,-65,-27,-4,18,127,34,-18,30, 
  /* [56][0][][] */ 127,5,33,58,-44,114,-76,-84,-63,57,-108,8,-33,77,-1,41, 
  /* [57][0][][] */ -39,-76,-41,-21,-72,-95,64,-38,-127,-7,22,69,38,32,-20,47, 
  /* [58][0][][] */ 68,-63,111,1,-5,-74,-48,56,41,-15,-127,-44,35,-20,-60,73, 
  /* [59][0][][] */ 47,-11,-95,127,21,27,70,-77,-52,-33,11,-119,-90,-55,3,77, 
  /* [60][0][][] */ 3,17,-1,42,-26,-17,-30,-29,-21,-62,61,127,-20,-124,-34,-7, 
  /* [61][0][][] */ -36,-1,80,-127,-24,34,11,91,-44,-115,22,63,126,-43,20,91, 
  /* [62][0][][] */ 63,43,34,-108,3,-17,12,-22,42,31,-57,14,41,-46,-127,-64, 
  /* [63][0][][] */ -21,-47,8,13,-94,-108,-54,-30,-80,-22,-70,-40,127,6,60,-35, 
  /* [64][0][][] */ 27,-11,29,50,-116,-34,-29,-66,63,127,18,28,0,-81,-80,78, 
  /* [65][0][][] */ -22,-10,-15,-1,-112,63,-10,-17,52,-121,121,-78,78,91,-127,64, 
  /* [66][0][][] */ -95,45,-80,-71,58,-37,-89,-26,-59,114,57,14,-127,-57,25,77, 
  /* [67][0][][] */ 1,-23,-127,-91,82,99,18,-47,-29,6,57,-21,44,29,43,36, 
  /* [68][0][][] */ 45,51,11,-98,-69,31,18,44,-58,36,127,-26,0,-52,-112,4, 
  /* [69][0][][] */ 68,-127,55,-8,18,-123,-13,102,20,65,63,50,2,42,-46,12, 
  /* [70][0][][] */ 14,-24,105,70,94,-65,106,5,70,26,-106,26,-50,64,-127,48, 
  /* [71][0][][] */ 2,29,83,-65,-127,-72,17,30,-18,-12,9,-86,-87,-4,2,28, 
  /* [72][0][][] */ -58,-104,28,-114,63,-12,5,36,-51,3,-127,-5,47,95,-77,104, 
  /* [73][0][][] */ 31,24,48,-23,120,-81,-16,-5,-22,91,-109,26,-52,-60,127,21, 
  /* [74][0][][] */ -96,-2,-112,-42,58,-40,-33,-11,-71,22,-127,0,-14,-54,-27,62, 
  /* [75][0][][] */ 85,-40,115,-54,14,17,-127,-4,50,-125,74,-35,10,-15,-50,0, 
  /* [76][0][][] */ 29,-10,-77,91,78,102,101,-73,69,-127,74,81,49,-83,-38,17, 
  /* [77][0][][] */ -31,-24,127,-23,36,17,2,-125,17,11,0,89,72,9,4,0, 
  /* [78][0][][] */ -76,-17,12,-20,-13,-48,11,-10,29,-23,0,-105,-79,-46,-127,-49, 
  /* [79][0][][] */ -124,-127,11,59,99,30,-54,30,36,18,-14,45,-14,-59,-119,-35, 
  /* [80][0][][] */ 23,-99,20,127,-25,40,-66,100,14,15,99,-6,-65,-1,-21,46, 
  /* [81][0][][] */ 114,72,3,108,2,17,13,127,50,-22,59,40,81,13,29,-62, 
  /* [82][0][][] */ -59,-15,19,-25,23,-127,-102,-55,18,67,-28,-39,-45,82,-93,-26, 
  /* [83][0][][] */ 71,-17,95,-33,-25,22,-56,32,32,-127,29,-55,-17,-24,2,-53, 
  /* [84][0][][] */ -11,-66,-95,-2,127,46,33,53,-120,47,-121,9,43,-74,-76,-12, 
  /* [85][0][][] */ 13,88,82,-95,59,27,44,-112,104,-35,20,-30,127,-69,11,-3, 
  /* [86][0][][] */ 100,-38,127,20,-5,-83,99,32,-60,-75,-127,-68,52,10,-82,-6, 
  /* [87][0][][] */ -6,-3,16,-86,71,-18,-29,-22,52,-21,71,-29,-83,-127,11,17, 
  /* [88][0][][] */ -39,-23,38,-6,16,31,-57,-28,-1,3,-36,-127,-43,-17,-10,1, 
  /* [89][0][][] */ -109,-6,16,-52,24,-12,-127,28,107,10,-61,-39,-7,-86,-102,-21, 
  /* [90][0][][] */ -1,1,-38,-75,127,41,-67,73,45,38,14,-14,50,-11,-84,-33, 
  /* [91][0][][] */ -36,-31,32,85,-31,-11,10,50,-63,-46,77,-48,-7,75,39,127, 
  /* [92][0][][] */ -52,116,-12,-49,-13,42,-75,121,-55,-17,102,44,-50,127,61,66, 
  /* [93][0][][] */ 12,70,-22,-83,65,64,-103,-15,44,45,71,18,-127,54,-36,51, 
  /* [94][0][][] */ 38,68,102,31,-127,-59,4,-7,30,-42,39,-13,-71,-50,4,-51, 
  /* [95][0][][] */ 8,47,50,103,127,-8,-105,36,59,7,-40,41,-20,37,74,-87, 
};
const TfArray<4, int> tensor_dimension7 = { 4, { 96,1,1,16 } };
const TfArray<96, float> quant7_scale = { 96, { 0.0020088367164134979, 0.0031577872578054667, 0.0028858901932835579, 0.0020449217408895493, 0.0029747462831437588, 0.0024697608314454556, 0.0023266845382750034, 0.0032201712019741535, 0.0026081274263560772, 0.0035796689335256815, 0.0028407908976078033, 0.0038993076886981726, 0.0022356095723807812, 0.0022220925893634558, 0.0022552201990038157, 0.0022438825108110905, 0.0036932264920324087, 0.0045545697212219238, 0.0039108544588088989, 0.0018415760714560747, 0.0024526212364435196, 0.0027800665702670813, 0.001821617828682065, 0.0029897349886596203, 0.0030306903645396233, 0.0022183822002261877, 0.0026963714044541121, 0.0031165871769189835, 0.0017955239163711667, 0.0025754973758012056, 0.0017758315661922097, 0.0023670080117881298, 0.0039496524259448051, 0.0020232764072716236, 0.0015748991863802075, 0.002015487989410758, 0.0030581064056605101, 0.0020165329333394766, 0.002665666863322258, 0.0023028738796710968, 0.0033802844118326902, 0.0023660995066165924, 0.0029133206699043512, 0.0019570866134017706, 0.0026671674568206072, 0.001940817222930491, 0.0019270987249910831, 0.0027472113724797964, 0.0015147184021770954, 0.0024866233579814434, 0.004082192201167345, 0.0022225137799978256, 0.0012281385716050863, 0.0026495638303458691, 0.0025979715865105391, 0.0032564823050051928, 0.0024714495521038771, 0.0030706697143614292, 0.0018664452945813537, 0.0027836696244776249, 0.0027171536348760128, 0.0027103177271783352, 0.0038429857231676579, 0.001777505618520081, 0.0017250721575692296, 0.0021299361251294613, 0.0025616949424147606, 0.0015119003364816308, 0.0028418628498911858, 0.0022756275720894337, 0.0018922677263617516, 0.0021124938502907753, 0.0021760158706456423, 0.0029681574087589979, 0.0031560806091874838, 0.0015802368288859725, 0.0018336082575842738, 0.0029926982242614031, 0.0027056930121034384, 0.0023451929446309805, 0.0020664043258875608, 0.0026279492303729057, 0.0022532462608069181, 0.0031494076829403639, 0.0027868584729731083, 0.0028003898914903402, 0.0023422834929078817, 0.0022235633805394173, 0.0024932858068495989, 0.0023754001595079899, 0.0029960896354168653, 0.0041041802614927292, 0.0019568172283470631, 0.0027320769149810076, 0.0031538219191133976, 0.003733588382601738, } };
const TfLiteAffineQuantization quant7 = { (TfLiteFloatArray*)&quant7_scale, (TfLiteIntArray*)&g0::quant6_zero, 0 };
const MODEL_SECTION(EI_MODEL_SECTION) ALIGN(16) int32_t tensor_data8[16] = { 1991, 7971, 906, 14307, -10951, -3938, 102, -1067, 14384, 5496, -11945, 2000, -16727, 13732, 2808, 25217, };
const TfArray<1, int> tensor_dimension8 = { 1, { 16 } };
const TfArray<16, float> quant8_scale = { 16, { 9.5338000392075628e-05, 9.5764837169554085e-05, 9.2627968115266412e-05, 0.00012735450582113117, 6.2176222854759544e-05, 9.7805561381392181e-05, 6.5589083533268422e-05, 0.00010591903264867142, 0.00010436579759698361, 0.00010330809891456738, 6.7863613367080688e-05, 9.421367576578632e-05, 9.2906680947635323e-05, 8.2751081208698452e-05, 0.00013921159552410245, 7.5142379500903189e-05, } };
const TfArray<16, int> quant8_zero = { 16, { 0,0,0,0,0,0,0,0,0,0,0,0,0,0,0,0 } };
const TfLiteAffineQuantization quant8 = { (TfLiteFloatArray*)&quant8_scale, (TfLiteIntArray*)&quant8_zero, 0 };
const MODEL_SECTION(EI_MODEL_SECTION) ALIGN(16) int8_t tensor_data9[16*1*1*96] = { 
  /* [0][0][][] */ -88,37,67,-32,-55,-19,-10,-30,-7,9,4,-8,65,23,1,-34,22,2,58,18,-4,-12,127,72,61,34,6,49,-15,-87,-69,15,-18,-45,-7,13,-15,39,7,32,-7,8,-41,13,-56,-21,27,35,17,-10,-56,-14,-15,-10,-10,-37,-26,20,-10,55,50,25,-9,3,-27,-42,-21,10,-45,-33,4,19,-14,23,-39,-27,-15,16,-51,-12,-39,45,47,-31,17,49,-8,58,29,-16,-4,-36,-17,-15,-38,-21, 
  /* [1][0][][] */ 12,60,58,-78,-74,-20,39,-28,-31,43,127,-52,41,-11,-85,-43,-64,24,-87,33,-13,-88,58,74,-5,-53,-36,-38,109,-105,114,-67,63,15,-15,83,79,112,7,-52,63,50,36,26,5,34,-105,-90,9,-108,-28,-25,23,-21,-60,33,91,27,-41,0,40,38,-6,-66,-13,-37,-69,14,21,31,-99,-11,-68,3,20,-94,10,50,-28,-73,-15,-29,-61,-28,51,-28,-17,93,-71,-33,-58,13,72,76,-31,52, 
  /* [2][0][][] */ 127,-59,11,15,-7,-75,56,50,22,-29,-89,-43,-71,-14,68,-18,-82,-78,-26,-3,38,-75,-50,-21,-51,-124,18,-35,-98,70,-67,120,-93,110,-32,-9,-31,-49,-17,23,-118,40,66,32,-99,48,-20,26,-42,80,21,-54,38,-60,19,60,-18,10,25,25,43,66,-50,49,86,-4,-35,17,12,-20,-34,36,76,27,51,19,36,-67,79,95,77,-70,16,1,-75,11,71,-19,-12,-6,-61,27,-71,30,31,71, 
  /* [3][0][][] */ -30,-17,-43,19,28,-17,-40,-46,-12,23,-6,33,-23,-6,-53,18,60,-17,16,-33,-12,127,17,-38,24,0,-10,33,49,-24,22,-9,-27,2,-18,-31,23,36,5,-17,-76,-21,-25,-4,-2,-19,-7,-5,-19,-66,-28,4,56,-74,-25,-20,-22,26,-7,-6,-41,-36,-35,-5,-13,35,-15,0,-14,-55,10,-79,-19,-52,23,6,16,-32,-3,-44,-25,17,-73,7,-16,-43,12,-51,-2,38,48,-21,39,9,-100,26, 
  /* [4][0][][] */ 12,16,-56,32,75,46,-68,16,-98,74,120,35,2,22,-12,-43,33,35,-63,60,20,-33,55,76,-55,39,-127,9,-54,-42,29,-15,-53,-63,34,110,10,31,36,-2,-11,-67,68,-40,-27,-17,-42,87,-50,58,5,18,75,3,-47,34,60,-5,-13,-13,8,20,51,5,-28,75,-12,31,-51,47,-64,39,55,-60,-62,-51,32,-13,-17,44,-35,72,-43,37,-52,51,17,-20,32,1,-5,31,-46,-24,71,11, 
  /* [5][0][][] */ -51,27,59,-24,38,-18,99,-42,53,35,3,-7,67,-43,-18,-25,-8,-30,35,33,-96,-15,-30,68,-49,25,43,25,48,-87,-45,76,42,115,-19,92,-54,36,58,15,-19,70,73,-8,-11,78,77,-9,35,72,-22,13,-12,-58,27,-99,74,-18,-79,-65,117,90,-57,5,89,-67,-87,-75,-83,-6,-60,29,-12,33,-8,-59,28,17,-72,-12,127,-18,14,-63,-51,74,27,26,-54,41,22,-29,4,38,9,61, 
  /* [6][0][][] */ 25,-7,-72,39,-40,-65,96,64,-72,64,23,83,-76,-97,37,51,2,-37,-29,-41,26,-59,-49,-52,-46,62,36,-23,37,65,70,-53,34,-5,8,-34,24,3,37,62,5,-16,15,29,-7,-41,-27,37,39,-101,-34,58,54,-17,-57,-73,48,23,-3,3,-69,24,-79,7,25,29,-13,18,63,87,7,-61,-47,30,127,7,33,-29,26,-90,45,-89,-77,82,7,-13,38,46,-14,54,29,2,-27,-1,15,104, 
  /* [7][0][][] */ 5,62,-30,-85,-42,11,41,1,-69,0,-22,-61,19,41,27,-20,-42,-69,-16,46,-35,127,0,-8,22,10,42,80,37,39,49,-33,51,15,-5,-8,-4,14,-11,48,-31,27,1,-81,37,-40,43,-14,22,-53,-18,-13,-69,14,-12,23,26,13,-73,-7,1,99,44,-16,-12,-48,-49,30,-29,-49,-47,50,34,69,-40,27,-59,35,44,-14,-23,-43,45,-74,53,-33,-14,12,-7,49,-39,10,56,-36,-58,7, 
  /* [8][0][][] */ 11,54,-35,59,-47,-3,-90,60,-82,-39,-38,9,-55,32,43,84,13,-53,-2,-9,53,12,2,-1,-12,42,-2,15,-31,-12,-38,-39,-33,-41,-23,-76,-3,20,46,-11,17,-81,50,-8,-18,-60,2,27,-17,13,68,72,13,-8,-51,92,-66,-6,4,-32,-35,27,-17,81,-21,-27,-29,-6,-31,-22,-5,24,-6,-57,-127,-26,-37,13,-2,-34,-37,-21,-29,-44,-27,-19,37,17,15,32,-70,-28,-91,-113,36,-24, 
  /* [9][0][][] */ -17,62,-88,27,19,-47,41,37,7,-4,-42,94,-63,17,53,127,11,36,73,29,-3,22,5,-110,-42,-25,53,13,26,-23,32,66,-43,4,-15,-107,31,-39,-37,-26,-17,58,-24,-35,-32,15,3,-32,-17,68,28,11,-70,-79,28,-19,-10,1,78,-6,-114,52,-44,-44,49,-43,-29,14,-76,-35,50,30,-29,71,-31,-2,-7,54,-98,15,8,39,77,3,27,-19,-16,-23,-99,17,-6,39,69,1,-85,-17, 
  /* [10][0][][] */ 9,7,-53,-7,-55,-14,54,-3,19,-31,-10,36,5,-22,-14,-24,-27,-23,-8,-29,39,21,-1,-9,37,66,24,37,-3,-41,-28,0,84,-28,16,15,88,-53,79,127,5,-12,35,-12,-17,-109,21,53,68,40,-79,-16,0,3,-50,61,48,-61,74,57,-17,71,-61,-30,-33,-107,31,54,42,-26,8,33,108,46,49,-81,6,-82,63,-8,1,-10,-20,3,-31,36,15,5,-26,1,52,16,79,83,-24,-15, 
  /* [11][0][][] */ -21,-24,50,-78,34,-28,-59,-21,84,-33,26,15,26,-10,27,36,-58,9,63,63,-65,18,-97,-63,-34,26,-16,35,21,-66,50,5,20,-12,-10,13,-82,12,-127,71,-70,105,-124,77,-17,33,3,-47,-10,-5,-82,-38,15,-11,107,-77,17,-2,24,-31,-7,-48,6,-113,-28,-85,72,71,74,17,60,-16,-14,-49,72,-42,120,63,-57,61,33,45,-16,71,120,57,-15,-16,-104,-43,-36,84,65,57,36,37, 
  /* [12][0][][] */ 48,-25,6,-28,19,90,-16,25,30,94,12,55,45,17,16,1,-52,38,43,35,127,-26,40,-65,-11,7,-78,-115,-13,70,36,18,47,5,25,-54,41,-12,-13,-11,30,-22,50,65,-35,47,34,13,-66,-2,-21,0,-4,-1,-10,8,-13,77,31,50,35,-73,36,-95,-4,118,-12,-47,-14,17,58,-19,-3,7,-3,32,19,32,-75,-24,8,3,100,38,12,90,-34,-61,69,30,-84,35,54,10,24,-50, 
  /* [13][0][][] */ -40,25,-49,-62,-44,-34,-9,-57,24,-32,-22,-77,82,-99,-57,-91,10,-29,-79,-30,-102,-49,9,76,6,7,108,11,38,-53,37,65,48,11,-120,104,-38,-31,32,-7,73,64,-17,38,-42,-90,62,-66,66,-50,-89,62,23,-13,-44,54,99,-12,-20,23,54,65,17,-127,-33,-3,-51,33,-47,-31,-59,-3,-94,24,-14,-64,-67,1,-20,48,-24,62,30,-72,69,70,31,-28,-7,-9,17,6,-35,-1,-31,-12, 
  /* [14][0][][] */ -27,19,-59,-39,68,64,-79,-9,61,-42,79,7,33,-47,-55,-49,-44,13,50,127,-4,-37,-12,23,1,24,-18,72,41,-16,-40,31,85,7,-40,5,-38,51,71,44,20,33,12,29,-27,-50,75,-62,36,-37,-41,-2,44,-9,-52,20,59,87,-79,5,-1,-54,-19,-97,-28,-65,-35,-3,-84,66,-34,39,3,-47,11,-35,47,11,-95,-44,40,23,-20,1,27,62,-17,-11,-36,77,59,8,6,-30,-47,-89, 
  /* [15][0][][] */ -103,-28,-27,-25,38,-45,-82,-92,-39,20,25,51,-17,-6,38,57,-77,-3,-10,-58,32,-66,-92,-103,34,-28,45,-124,-43,-123,-9,15,7,51,78,-96,5,-34,5,-40,-41,31,-19,-44,-67,17,44,84,-73,-71,-64,-42,-43,59,-3,-55,-82,-26,73,2,-62,24,-49,-50,-88,-27,1,21,86,-59,126,-65,51,-18,-20,-28,-28,-22,-6,17,-4,67,37,5,-17,-34,-127,-54,-12,-15,-27,79,31,-28,-6,30, 
};
const TfArray<4, int> tensor_dimension9 = { 4, { 16,1,1,96 } };
const TfArray<16, float> quant9_scale = { 16, { 0.0040518650785088539, 0.0040700053796172142, 0.0039366884157061577, 0.0054125664755702019, 0.0026424892712384462, 0.0041567361913621426, 0.0027875360101461411, 0.0045015588402748108, 0.0044355462305247784, 0.0043905940838158131, 0.0028842035681009293, 0.0040040812455117702, 0.003948533907532692, 0.00351692084223032, 0.00591649254783988, 0.0031935509759932756, } };
const TfLiteAffineQuantization quant9 = { (TfLiteFloatArray*)&quant9_scale, (TfLiteIntArray*)&g0::quant8_zero, 0 };
const MODEL_SECTION(EI_MODEL_SECTION) ALIGN(16) int32_t tensor_data10[96] = { -10603, 1222, -5567, -7033, -3706, 3725, 793, -1854, 131, -7348, 10536, -4059, -2073, 20486, 17530, -2012, 28308, -3900, -8412, -808, -6566, -4752, -2194, -200, 729, -1801, -7600, -9070, 871, -6337, 2303, 4325, 16135, 1343, 1241, -305, -2483, -4092, -758, 8986, 3275, 130, -3055, -2210, 21522, 14749, 2117, 12188, -1194, 16123, 17007, -4780, -1119, 3018, 3779, 12275, -3740, -3596, 25280, 7601, 10764, 13026, 15390, -8507, 766, -524, -2510, 583, -8833, -4289, 5267, -2263, 13231, 188, -1301, 12144, -1485, 1071, 13795, 3775, -6321, 11035, -8374, 4062, 14925, -2186, 57, -2688, -8611, -4264, 15623, -1111, 4745, -707, -4628, -1980, };
const TfArray<96, float> quant10_scale = { 96, { 0.00016540342767257243, 0.00016291490464936942, 0.00011482548870844766, 0.00011033639748347923, 0.00016876107838470489, 0.0001442971988581121, 0.00030772516038268805, 0.00018677898333407938, 0.00013957393821328878, 0.00014131456555332989, 0.00010115095938090235, 0.00016576058987993747, 0.0001854488073149696, 7.9402328992728144e-05, 8.0860598245635629e-05, 0.00014979297702666372, 6.1010854551568627e-05, 0.00020760702318511903, 0.00010644012218108401, 5.0798829761333764e-05, 0.00020839778881054372, 0.00030244546360336244, 0.00022144384274724871, 0.0001538447686471045, 0.00046060048043727875, 0.00021732880850322545, 0.00018982680921908468, 9.6674739324953407e-05, 0.00013219477841630578, 0.00010933015437331051, 0.00035173169453628361, 0.00014334423758555204, 0.0001216474556713365, 0.00017929465684574097, 0.00014850871230009943, 0.00021050649229437113, 0.00012562602933030576, 0.00015756345237605274, 0.00021761927928309888, 0.00012723810505121946, 0.00013133733591530472, 0.00018076958076562732, 0.00013188974116928875, 0.00023107365996111184, 6.5710977651178837e-05, 0.00010210774053120986, 0.00018977053696289659, 0.00012285712000448257, 0.00013678737741429359, 8.6800806457176805e-05, 0.00010238619142910466, 8.7773696577642113e-05, 0.00020394059538375586, 0.0001320041628787294, 0.00018487477791495621, 0.0001248569751624018, 0.00011472855840111151, 0.00011910193279618397, 7.6825912401545793e-05, 9.6778545412234962e-05, 0.00012545376375783235, 0.00011906638974323869, 0.00010473040310898796, 0.00011632250971160829, 0.00017110211774706841, 0.00033827434526756406, 0.00019972329027950764, 0.00023769686231389642, 0.00016143848188221455, 0.00013556757767219096, 0.00017566283349879086, 0.00013246458547655493, 9.8712618637364358e-05, 0.00015998017624951899, 0.00030046410392969847, 8.1361358752474189e-05, 0.00018363921844866127, 0.00018487183842808008, 0.00013824447523802519, 0.00018690717115532607, 0.00021524517796933651, 0.00012686391710303724, 0.0001519732759334147, 0.00015313760377466679, 9.4160139269661158e-05, 0.00014314900909084827, 0.00026470771990716457, 0.00026257481658831239, 0.00030194284045137465, 0.00018872007785830647, 7.6200354669708759e-05, 0.00025492621352896094, 0.000153969886014238, 0.00019004983187187463, 9.9445256637409329e-05, 0.00024045964528340846, } };
const TfLiteAffineQuantization quant10 = { (TfLiteFloatArray*)&quant10_scale, (TfLiteIntArray*)&g0::quant6_zero, 0 };
const MODEL_SECTION(EI_MODEL_SECTION) ALIGN(16) int8_t tensor_data11[1*3*3*96] = { 
  /* [0][0][][] */ 35,98,38,16,-44,-2,30,16,111,-57,-94,69,-53,-12,-64,12,-63,19,45,18,5,49,77,127,29,-23,-48,43,-36,36,11,-35,-52,-1,-71,126,4,94,-24,-13,51,-59,53,53,-95,-36,9,4,-45,-61,-74,12,22,18,-38,-5,-109,-87,-99,-127,-122,20,-127,20,-23,24,113,-5,-1,33,15,9,-36,47,55,27,9,-37,-118,25,32,-50,87,-13,-61,-50,-34,12,-71,-17,-38,59,72,-28,116,-11, -4,-44,30,51,10,127,-14,14,39,49,-127,64,-48,-88,-89,68,-99,33,101,127,127,22,100,113,23,58,38,3,39,127,-5,-81,95,87,-24,11,89,127,-57,-107,127,-13,105,127,-127,-76,127,-30,-27,5,-26,-2,16,127,2,-96,31,67,-89,-52,-100,-42,-94,72,-23,84,94,-24,79,127,113,-7,-35,78,-36,-41,-9,-71,14,127,-33,-70,127,-102,-127,-29,13,17,127,35,-63,-1,127,-20,127,23, 53,-60,21,31,-41,-3,-33,35,114,127,-84,68,-35,31,-27,-125,-127,-4,53,8,7,49,46,111,16,-20,41,56,26,47,0,-46,-49,-116,-117,35,34,67,-15,8,4,80,-5,58,-46,-35,-12,4,43,-64,-2,-16,11,10,-52,-35,76,-127,-37,-86,-127,43,-71,-1,8,21,-59,24,2,2,8,24,-25,-74,4,9,9,7,-118,5,48,-14,49,-29,-28,-45,-52,-6,-42,-18,-4,63,-10,55,97,-32, 
  /* [0][1][][] */ 119,-27,63,127,18,-87,127,23,-69,-123,-30,127,-7,-127,-115,44,-35,15,121,64,-92,8,-127,-48,-25,30,-84,127,-105,45,61,26,-45,35,36,127,-109,68,-1,-50,50,-127,101,49,-90,-127,-10,-98,-113,-100,-111,42,59,-122,16,27,-126,33,-73,-7,-70,-127,-54,53,-127,-51,127,-46,-82,46,-64,-86,-127,50,127,-111,93,35,-70,-70,127,-74,2,127,-22,-8,26,85,20,3,-127,39,-1,-77,113,10, -122,-9,14,51,-66,-124,-114,-127,54,20,-110,62,-40,-49,-91,127,-120,-127,127,117,85,-127,-81,4,-127,127,50,70,-70,34,-127,28,-127,95,127,-34,-27,123,127,-56,-83,21,42,65,-19,-79,-59,-127,24,-65,-127,127,53,38,82,-51,1,65,24,16,-69,-46,-83,127,31,-127,51,127,74,43,-127,-58,-30,80,-118,-123,127,127,127,-62,-94,28,-59,108,-52,-74,127,127,120,127,-95,-127,-120,-38,9,127, 127,14,127,119,1,-45,-19,19,-104,124,-18,105,-3,-78,-127,-21,-74,7,51,87,-77,36,-91,-61,7,0,127,82,127,60,28,-127,-50,-127,-39,61,-127,29,-40,-63,-2,99,61,34,-63,-70,-20,-35,127,-123,-87,-54,53,-109,-127,41,127,17,-127,35,-77,-105,-19,45,122,-45,-73,-7,-85,45,-61,-31,-79,-127,-9,-127,50,-10,-93,-52,-18,-88,4,119,-63,21,9,45,-3,18,-25,43,-45,127,93,-31, 
  /* [0][2][][] */ 58,-127,50,19,50,-2,45,57,-60,-22,62,-11,60,-84,-13,35,-92,54,4,97,35,50,30,-79,26,-12,-15,61,-90,-7,-5,-18,-73,-3,-23,33,62,30,39,-50,-44,-11,-26,11,-54,-15,-39,-17,-45,-43,-12,30,9,-19,-47,-19,-56,40,9,17,-16,-18,-3,9,-71,51,20,-24,56,25,11,118,-23,-19,23,7,29,-57,-57,-36,32,-10,-15,-75,-31,76,-56,-19,-47,7,7,24,-46,-30,38,-78, -38,-36,57,61,127,84,-30,61,-127,27,-77,-12,127,-110,-56,-15,-101,86,-64,-15,61,19,74,-25,49,-93,15,68,-16,62,-9,-36,-38,16,47,-24,92,34,24,-127,-72,-25,-127,3,-2,-2,-25,-26,-16,-71,-3,97,127,-42,-69,-127,-10,122,-45,32,115,-66,57,36,-25,51,-46,5,127,57,22,99,1,14,-20,-70,21,-55,28,-42,37,-127,-25,-118,-56,127,13,1,98,38,25,2,-26,-20,65,-17, 69,71,59,29,40,-9,-22,51,-50,35,53,-14,37,-107,-31,17,-60,49,12,115,16,57,28,-95,53,-23,54,34,2,13,-8,-84,-54,-10,-50,-47,88,12,31,-35,-35,12,1,-2,-45,17,-58,-10,53,-127,-74,31,-45,-6,-22,-19,109,34,17,33,17,-2,-31,4,81,37,-127,-5,47,43,-21,127,-16,-63,-11,14,25,-47,-92,-26,65,35,-5,-69,-6,49,-46,-15,-47,15,44,59,-71,10,0,-56, 
};
const TfArray<4, int> tensor_dimension11 = { 4, { 1,3,3,96 } };
const TfArray<96, float> quant11_scale = { 96, { 0.0082456031814217567, 0.0081215463578701019, 0.0057242186740040779, 0.0055004311725497246, 0.0084129869937896729, 0.007193426601588726, 0.015340549871325493, 0.0093112057074904442, 0.006957965437322855, 0.0070447381585836411, 0.0050425236113369465, 0.0082634082064032555, 0.0092448946088552475, 0.0039583225734531879, 0.0040310192853212357, 0.0074673993512988091, 0.0030414804350584745, 0.010349513962864876, 0.0053061959333717823, 0.0025323959998786449, 0.0103889349848032, 0.015077349729835987, 0.011039299890398979, 0.0076693873852491379, 0.022961609065532684, 0.010834159329533577, 0.0094631444662809372, 0.0048193773254752159, 0.0065901032648980618, 0.0054502682760357857, 0.017534339800477028, 0.0071459198370575905, 0.0060643036849796772, 0.0089381011202931404, 0.0074033765122294426, 0.010494057089090347, 0.0062626414000988007, 0.0078547690063714981, 0.010848639532923698, 0.0063430056907236576, 0.0065473588183522224, 0.0090116281062364578, 0.0065748970955610275, 0.011519360356032848, 0.0032757886219769716, 0.0050902203656733036, 0.0094603393226861954, 0.0061246072873473167, 0.0068190507590770721, 0.0043271472677588463, 0.0051041017286479473, 0.0043756472878158092, 0.010166737250983715, 0.0065806005150079727, 0.0092162787914276123, 0.0062243030406534672, 0.0057193865068256855, 0.0059374058619141579, 0.003829884110018611, 0.0048245522193610668, 0.0062540536746382713, 0.0059356340207159519, 0.0052209640853106976, 0.0057988474145531654, 0.0085296910256147385, 0.016863470897078514, 0.0099564986303448677, 0.011849536560475826, 0.0080479448661208153, 0.006758242379873991, 0.0087570492178201675, 0.0066035534255206585, 0.0049209687858819962, 0.007975245825946331, 0.014978575520217419, 0.0040559829212725163, 0.0091546839103102684, 0.0092161316424608231, 0.0068916897289454937, 0.0093175964429974556, 0.010730287060141563, 0.0063243517652153969, 0.0075760907493531704, 0.0076341335661709309, 0.0046940208412706852, 0.0071361875161528587, 0.013196066953241825, 0.013089739717543125, 0.015052292495965958, 0.0094079719856381416, 0.003798699239268899, 0.012708445079624653, 0.0076756239868700504, 0.0094742625951766968, 0.0049574915319681168, 0.011987265199422836, } };
const TfLiteAffineQuantization quant11 = { (TfLiteFloatArray*)&quant11_scale, (TfLiteIntArray*)&g0::quant6_zero, 3 };
const MODEL_SECTION(EI_MODEL_SECTION) ALIGN(16) int32_t tensor_data12[96] = { 4593, 2211, 379, -1077, 4600, 5364, 10269, 1633, -283, 6914, 1664, -4130, 3330, 4078, 231, -804, 4099, 9637, -261, 860, 8266, 10567, 11923, -1163, -3777, -798, 6955, 604, 3340, 291, 8816, -1590, 7582, 2850, 6003, -3398, 1532, -3689, 1352, 2326, 1907, 2187, 1357, -2332, 1554, 2081, 4630, 5135, 3091, 3303, 6471, 2648, -3588, 1738, 1448, 2831, 1267, 2324, 11820, 515, -1209, 7648, 4753, 2702, 6756, 9497, -4218, 3718, 6526, -1046, 3831, 957, 4225, 2978, 3948, 2372, -1448, 2770, 5136, 9517, 4067, 1600, 7531, 734, 3668, 3604, 974, -1816, 14550, -599, 963, -1896, 8176, 3137, -743, -536, };
const TfArray<96, float> quant12_scale = { 96, { 0.00014953153731767088, 0.00012436789984349161, 0.00017204741016030312, 0.00018730241572484374, 0.00015035188698675483, 0.0001222422142745927, 8.3301805716473609e-05, 0.00015957470168359578, 0.00011462756810942665, 0.00011218172585358843, 0.00015588989481329918, 0.00011070512846345082, 0.00012512372632045299, 0.00012664799578487873, 0.0002637362340465188, 0.00015596493904013187, 0.00014788453700020909, 8.802521915640682e-05, 0.00012477851123549044, 0.0001405339571647346, 8.8656415755394846e-05, 7.8384451626334339e-05, 7.4072253482881933e-05, 0.00013176379434298724, 0.0001234490773640573, 0.00019046389206778258, 0.00012139088357798755, 0.00015418676775880158, 0.0001104496986954473, 0.00015450007049366832, 9.5715200586710125e-05, 0.00013442135241348296, 0.00010471120913280174, 0.00015956637798808515, 0.00014000419469084591, 0.00014418869977816939, 0.00015343731502071023, 0.00015141612675506622, 0.00015776568034198135, 0.00013639417011290789, 0.00021317723440006375, 0.00013011942792218179, 0.00021667621331289411, 0.00014223491598386317, 0.00016188935842365026, 0.00016850163228809834, 0.00012906947813462466, 0.00012508025974966586, 0.00016296737885568291, 0.00017336757446173579, 0.0001216498130816035, 0.00013622391270473599, 0.00013183942064642906, 0.00020248843065928668, 0.00019282440189272165, 0.00015687383711338043, 0.00018161418847739697, 0.00012470775982365012, 6.8848661612719297e-05, 0.00015160991461016238, 0.00019586604321375489, 9.6573785413056612e-05, 0.00014057320368010551, 0.00018704784451983869, 9.3499358627013862e-05, 7.3199880716856569e-05, 0.00013383032637648284, 0.00013218134699855, 0.00011063057172577828, 0.00015779134992044419, 0.00016383473121095449, 0.00017699890304356813, 0.00012496426643338054, 0.0001252376678166911, 0.00014849216677248478, 0.0001182748019346036, 0.00016630531172268093, 0.00012483869795687497, 9.1615889687091112e-05, 7.4412550020497292e-05, 0.00015571193944197148, 0.00021949103393126279, 0.00010605584247969091, 0.00014959400868974626, 0.00011089868348790333, 0.00015272310702130198, 0.00012805921141989529, 0.00019759188580792397, 6.4748797740321606e-05, 0.00018500455189496279, 0.00017379577911924571, 0.00016332443919964135, 0.00010113961616298184, 0.00010151269088964909, 0.00017540683620609343, 0.00016753081581555307, } };
const TfLiteAffineQuantization quant12 = { (TfLiteFloatArray*)&quant12_scale, (TfLiteIntArray*)&g0::quant6_zero, 0 };
const MODEL_SECTION(EI_MODEL_SECTION) ALIGN(16) int8_t tensor_data13[96*1*1*16] = { 
  /* [0][0][][] */ -30,-10,20,-36,-3,-54,-53,-28,46,-43,16,-48,53,-127,-20,-53, 
  /* [1][0][][] */ -127,36,-89,-107,-118,32,4,47,-38,92,50,-70,65,86,53,87, 
  /* [2][0][][] */ -18,31,-114,-15,9,-58,20,-72,-91,110,77,57,31,54,-22,127, 
  /* [3][0][][] */ -56,-80,-3,-48,-56,-14,-38,-78,11,-5,20,-72,-47,-43,-127,-67, 
  /* [4][0][][] */ 127,-7,-20,28,-41,-26,-101,34,-13,63,10,1,56,48,-48,-64, 
  /* [5][0][][] */ -125,13,-79,0,84,-50,-4,-127,80,0,34,-50,5,-68,-46,-83, 
  /* [6][0][][] */ 76,-5,-43,36,-38,100,42,-20,21,-112,127,-12,4,-8,-94,18, 
  /* [7][0][][] */ -61,58,121,-112,35,91,14,-13,113,45,-72,17,48,-37,-22,127, 
  /* [8][0][][] */ -114,-32,93,-14,113,15,104,127,-33,-27,-54,-67,-50,65,-107,-44, 
  /* [9][0][][] */ 42,30,24,-36,-18,-33,-55,-127,40,16,87,4,-22,-48,38,-72, 
  /* [10][0][][] */ -34,-119,29,-82,-127,51,11,61,-73,-44,-3,23,2,94,-122,10, 
  /* [11][0][][] */ 53,-68,-11,74,-91,-26,64,-35,85,60,-28,32,28,-127,-19,122, 
  /* [12][0][][] */ -29,-49,118,-30,118,-18,65,57,72,40,121,78,-49,-8,-127,38, 
  /* [13][0][][] */ 47,-49,27,-25,5,6,127,40,-109,-9,-11,55,-30,74,62,-88, 
  /* [14][0][][] */ 73,-53,127,34,7,43,47,105,9,56,71,39,22,15,28,-53, 
  /* [15][0][][] */ -32,93,14,-42,84,127,-109,46,-62,23,-57,-31,-30,86,-6,-33, 
  /* [16][0][][] */ -73,69,107,-19,-9,85,-5,34,31,5,-22,25,97,16,82,127, 
  /* [17][0][][] */ -7,78,127,-93,59,-81,-34,-102,-81,71,-85,18,3,17,118,5, 
  /* [18][0][][] */ -108,54,-62,-63,62,32,-52,-71,-8,49,127,76,-26,105,-74,-16, 
  /* [19][0][][] */ 3,105,109,96,43,-23,-15,22,-19,127,8,83,57,45,-112,41, 
  /* [20][0][][] */ 127,21,0,46,-91,1,-28,54,-8,-51,-101,-53,54,-9,16,8, 
  /* [21][0][][] */ -93,-92,-45,92,-19,-37,-127,91,29,-6,54,-31,-58,-37,-96,-26, 
  /* [22][0][][] */ 43,-30,1,-18,127,-51,-69,56,54,107,-86,117,-35,26,-44,57, 
  /* [23][0][][] */ -97,8,15,-15,35,53,108,41,-7,127,-5,-59,26,8,-75,-21, 
  /* [24][0][][] */ 2,-78,76,-17,127,31,44,-53,-21,53,34,35,-101,62,-19,-25, 
  /* [25][0][][] */ 127,-71,29,4,39,-18,5,46,85,11,-31,8,105,-53,62,24, 
  /* [26][0][][] */ 34,38,127,94,29,-30,-56,-8,-19,5,22,122,23,-41,18,-47, 
  /* [27][0][][] */ -101,7,-38,30,-50,124,-36,-127,17,-66,122,-32,38,-14,100,62, 
  /* [28][0][][] */ -114,40,-89,-127,18,-27,100,-50,-105,57,-89,44,-49,99,-31,83, 
  /* [29][0][][] */ 63,127,-73,-1,24,67,-51,-10,25,30,-9,116,-99,40,28,84, 
  /* [30][0][][] */ -22,65,-120,-35,81,-11,37,7,-96,33,-74,-7,56,65,-21,127, 
  /* [31][0][][] */ 12,-98,113,41,77,-55,-127,18,-17,-19,27,-75,-81,23,-6,77, 
  /* [32][0][][] */ -20,56,-20,24,-48,49,-5,45,-27,-127,20,-103,49,58,9,39, 
  /* [33][0][][] */ -39,-30,21,62,-42,11,-65,33,-1,-55,31,-19,-15,-9,3,127, 
  /* [34][0][][] */ -23,24,-78,-109,59,-5,-9,71,0,7,0,10,-31,-31,5,127, 
  /* [35][0][][] */ 54,-19,36,10,-17,-11,-80,-20,21,-127,-67,-17,7,-33,28,-12, 
  /* [36][0][][] */ -15,127,-117,-24,16,95,-44,61,-9,3,31,-34,15,-54,-88,108, 
  /* [37][0][][] */ 30,26,69,-10,50,-82,-3,46,-127,84,-85,-47,38,11,81,1, 
  /* [38][0][][] */ -47,118,-3,-24,17,-4,37,-63,33,-11,-59,-51,-15,-79,-127,33, 
  /* [39][0][][] */ 70,81,-113,-106,-35,13,53,-127,-17,-34,3,-12,87,9,-79,-47, 
  /* [40][0][][] */ 13,-2,-60,-81,-54,3,32,-127,25,38,34,-42,30,78,33,65, 
  /* [41][0][][] */ -17,-127,33,120,-53,-71,-110,-11,-40,-44,78,-73,-33,-42,19,72, 
  /* [42][0][][] */ 7,41,-44,-127,-6,12,64,-2,108,-7,-28,27,70,-24,-16,26, 
  /* [43][0][][] */ -24,69,32,43,127,28,2,35,-62,34,23,-91,-123,-43,7,-22, 
  /* [44][0][][] */ 80,-90,50,40,-61,28,-43,127,17,-50,34,4,88,-10,-73,-42, 
  /* [45][0][][] */ 19,-106,-14,62,-29,-127,14,51,31,-46,15,18,-104,116,4,12, 
  /* [46][0][][] */ -35,-36,41,106,13,-2,-111,-7,15,-50,18,-7,62,89,47,127, 
  /* [47][0][][] */ -65,-79,-43,13,-26,-46,78,-13,30,-111,-99,-20,65,-54,-127,-28, 
  /* [48][0][][] */ -66,75,-23,21,21,40,-20,-107,15,-36,-30,-70,28,-127,-63,-5, 
  /* [49][0][][] */ -38,-9,9,-14,-15,-42,127,86,-29,-32,-19,13,-15,80,-25,28, 
  /* [50][0][][] */ 23,23,-66,-11,50,-75,-39,-33,-51,40,-10,-7,4,-116,-127,-96, 
  /* [51][0][][] */ -58,54,-63,108,-50,52,-41,-83,-1,-53,-24,-60,22,27,-12,127, 
  /* [52][0][][] */ -127,11,13,-12,6,65,70,-38,-2,-78,-68,-59,-82,-73,-122,28, 
  /* [53][0][][] */ -52,-70,-25,-127,18,27,-20,111,19,-72,-44,62,-11,40,93,86, 
  /* [54][0][][] */ 1,-57,-50,-17,-92,72,100,-21,-20,-51,89,-3,-10,18,-127,29, 
  /* [55][0][][] */ -37,-41,-8,41,58,-51,67,80,4,-1,-127,-38,64,-43,-19,15, 
  /* [56][0][][] */ 36,-27,-1,-21,-47,10,-127,-17,-16,-53,-10,-15,45,-79,6,-6, 
  /* [57][0][][] */ -65,-9,8,-55,108,15,91,52,-14,64,28,-1,-98,50,-127,-34, 
  /* [58][0][][] */ 56,47,-31,2,112,66,-67,-122,26,-127,-112,-3,-115,-96,-23,46, 
  /* [59][0][][] */ -59,-45,70,33,68,26,-127,-54,21,93,-75,-2,-57,8,-28,2, 
  /* [60][0][][] */ -4,-38,-28,23,-127,-66,57,-16,24,68,-8,59,-6,-45,26,44, 
  /* [61][0][][] */ -1,70,-116,-17,-64,-12,-127,-43,-55,1,52,96,107,-26,102,77, 
  /* [62][0][][] */ 74,-55,65,16,-1,56,-3,110,-71,127,-24,122,11,23,63,86, 
  /* [63][0][][] */ 45,-92,-25,-8,-50,2,42,-34,0,-35,11,17,-47,117,127,49, 
  /* [64][0][][] */ -24,30,-108,4,-28,119,-24,24,4,-125,80,55,18,-90,-100,127, 
  /* [65][0][][] */ -27,-55,114,32,100,-76,91,67,-7,-35,-110,-83,9,88,-127,46, 
  /* [66][0][][] */ -57,-127,-33,-94,-45,-85,59,-27,45,-54,40,98,-68,-55,-86,35, 
  /* [67][0][][] */ -13,-35,-106,-22,-43,116,4,-109,-74,-82,-23,-127,17,-27,-96,49, 
  /* [68][0][][] */ 127,51,31,2,-41,-19,-57,-20,-30,-57,-30,-10,29,-38,8,-43, 
  /* [69][0][][] */ -12,11,41,13,-23,-40,-85,66,10,127,-35,-17,-10,53,46,-36, 
  /* [70][0][][] */ 30,13,15,83,-30,-9,6,-84,109,127,34,34,11,-59,-20,42, 
  /* [71][0][][] */ 32,-57,92,127,-34,24,-10,12,109,6,-12,2,57,-26,10,-28, 
  /* [72][0][][] */ -63,-40,72,80,84,35,-67,127,45,1,68,-8,11,-75,-77,60, 
  /* [73][0][][] */ 40,16,124,-112,13,-96,-41,19,17,127,-101,-30,28,-93,9,1, 
  /* [74][0][][] */ 35,18,40,33,-127,-1,0,-30,-58,-29,24,-13,25,-54,3,19, 
  /* [75][0][][] */ 71,85,-68,-2,31,24,-8,-59,-22,-41,30,72,-127,12,37,59, 
  /* [76][0][][] */ -86,-48,11,-23,-54,14,83,-39,-60,27,104,38,-28,-113,-48,127, 
  /* [77][0][][] */ -91,60,8,9,-98,-52,116,44,89,-61,6,5,-15,18,-59,127, 
  /* [78][0][][] */ 80,-19,19,56,-114,41,-127,3,-22,27,-57,-26,-10,-104,-5,52, 
  /* [79][0][][] */ -89,4,110,37,-47,-98,-20,-11,25,-24,50,28,-111,120,-96,127, 
  /* [80][0][][] */ 27,67,21,-88,-14,8,127,-56,-55,51,-47,5,83,-41,-15,-14, 
  /* [81][0][][] */ 50,-50,21,-127,24,-3,-39,48,74,26,-14,-19,-43,3,-37,-76, 
  /* [82][0][][] */ 63,20,57,-7,39,-95,-27,49,-3,127,-82,3,11,11,42,-93, 
  /* [83][0][][] */ -43,48,17,-4,30,13,127,79,40,57,-19,-27,-93,62,-86,-104, 
  /* [84][0][][] */ -17,-125,3,47,13,-127,-98,8,-35,12,-90,-33,-74,46,-43,-41, 
  /* [85][0][][] */ -99,67,-32,-48,24,-38,13,-27,25,99,36,-54,-111,-127,-114,22, 
  /* [86][0][][] */ 26,30,49,120,-1,-80,62,3,43,4,-127,-25,51,25,-117,11, 
  /* [87][0][][] */ -27,22,127,-32,-112,-28,18,-23,26,-41,22,38,-56,34,19,-37, 
  /* [88][0][][] */ -87,-48,-116,44,39,43,-5,29,-2,-75,-127,-86,99,-10,38,13, 
  /* [89][0][][] */ 49,33,10,-122,38,-38,-2,45,127,-56,34,-105,-8,-30,35,-79, 
  /* [90][0][][] */ 7,78,8,27,-31,33,30,127,9,-67,-21,109,38,-2,-30,58, 
  /* [91][0][][] */ -68,1,22,41,127,-35,-55,-33,-53,70,-55,62,-56,-118,-15,48, 
  /* [92][0][][] */ -9,107,31,4,-124,-19,-127,0,42,47,39,54,33,-13,-24,-12, 
  /* [93][0][][] */ 101,32,102,89,-122,-57,-24,-5,-5,-63,-20,-85,33,-127,-2,10, 
  /* [94][0][][] */ -26,-122,57,-127,-5,14,-33,-19,107,-43,-21,41,-4,15,-50,37, 
  /* [95][0][][] */ -29,-40,-29,-24,127,52,-4,52,83,47,-55,48,-11,72,-61,58, 
};
const TfArray<96, float> quant13_scale = { 96, { 0.0024543190374970436, 0.0020412986632436514, 0.0028238808736205101, 0.0030742671806365252, 0.0024677838664501905, 0.0020064087584614754, 0.0013672647764906287, 0.0026191615033894777, 0.0018814266659319401, 0.0018412821227684617, 0.0025586811825633049, 0.0018170461989939213, 0.0020537041127681732, 0.0020787226967513561, 0.0043288050219416618, 0.0025599130894988775, 0.0024272862356156111, 0.0014447920257225633, 0.0020480381790548563, 0.0023066382855176926, 0.0014551520580425858, 0.0012865543831139803, 0.0012157766614109278, 0.0021626902744174004, 0.0020262175239622593, 0.0031261576805263758, 0.001992435660213232, 0.0025307273026555777, 0.0018128537340089679, 0.002535869600251317, 0.0015710106818005443, 0.0022063096985220909, 0.0017186657059937716, 0.0026190248318016529, 0.0022979432251304388, 0.0023666250053793192, 0.0025184261612594128, 0.0024852515198290348, 0.0025894693098962307, 0.0022386903874576092, 0.0034989605192095041, 0.0021357005462050438, 0.0035563907586038113, 0.0023345567751675844, 0.0026571527123451233, 0.0027656825259327888, 0.002118467353284359, 0.0020529907196760178, 0.0026748466771095991, 0.0028455492574721575, 0.0019966855179518461, 0.0022358959540724754, 0.0021639314945787191, 0.0033235209994018078, 0.0031649016309529543, 0.0025748310144990683, 0.0029809039551764727, 0.0020468768198043108, 0.0011300398036837578, 0.0024884322192519903, 0.003214825177565217, 0.0015851029893383384, 0.0023072825279086828, 0.0030700888019055128, 0.0015346412546932697, 0.0012014580424875021, 0.0021966090425848961, 0.002169543644413352, 0.0018158224411308765, 0.0025898905005306005, 0.0026890828739851713, 0.0029051515739411116, 0.0020510868635028601, 0.0020555744413286448, 0.0024372595362365246, 0.0019412902183830738, 0.0027296335902065039, 0.002049025846645236, 0.0015037271659821272, 0.0012213620357215405, 0.0025557603221386671, 0.0036025913432240486, 0.0017407356062904, 0.0024553444236516953, 0.0018202230567112565, 0.0025067036040127277, 0.002101885387673974, 0.0032431522849947214, 0.0010627470910549164, 0.0030365514103323221, 0.0028525774832814932, 0.0026807072572410107, 0.0016600437229499221, 0.0016661671688780189, 0.0028790202923119068, 0.002749748295173049, } };
const TfLiteAffineQuantization quant13 = { (TfLiteFloatArray*)&quant13_scale, (TfLiteIntArray*)&g0::quant6_zero, 0 };
const MODEL_SECTION(EI_MODEL_SECTION) ALIGN(16) int32_t tensor_data14[16] = { -22689, -6255, 15846, -5393, 10064, -13384, 4309, -8542, 14806, -8371, 4984, 8801, -2164, -40742, -8796, 4143, };
const TfArray<16, float> quant14_scale = { 16, { 7.9612393165007234e-05, 7.1143280365504324e-05, 7.5359908805694431e-05, 8.2658101746346802e-05, 9.6662290161475539e-05, 0.00014087923045735806, 7.9326346167363226e-05, 7.2663395258132368e-05, 0.00011041430843761191, 0.00010301168367732316, 0.00011393108434276655, 9.6970943559426814e-05, 9.8132790299132466e-05, 9.0060952061321586e-05, 6.5963577071670443e-05, 8.8444438006263226e-05, } };
const TfLiteAffineQuantization quant14 = { (TfLiteFloatArray*)&quant14_scale, (TfLiteIntArray*)&g0::quant8_zero, 0 };
const MODEL_SECTION(EI_MODEL_SECTION) ALIGN(16) int8_t tensor_data15[16*1*1*96] = { 
  /* [0][0][][] */ -7,27,29,1,-19,-101,-39,-1,-23,-70,8,-10,66,-74,51,43,-73,-30,10,22,86,7,-95,-18,18,67,123,70,12,89,72,-10,18,-1,45,-26,35,51,-40,14,127,3,19,-24,-28,2,7,-50,23,-27,98,12,-64,14,38,-3,2,-34,-3,32,-5,61,-33,11,33,18,29,6,7,-32,31,39,19,17,-13,8,74,-40,22,46,1,42,51,28,-88,-6,18,72,36,7,-92,6,18,-16,90,103, 
  /* [1][0][][] */ 39,33,-36,-21,10,-42,115,-12,-63,-40,-73,-20,15,-32,9,-34,-37,-26,-68,25,-1,-116,97,-59,35,-2,1,85,-22,45,-38,56,-61,52,25,33,-77,61,-81,67,17,-19,-25,-78,72,-57,15,26,-111,3,47,-120,-31,48,103,24,20,20,-81,23,-69,21,14,12,56,34,102,-4,-53,-127,-3,62,51,34,-14,12,-72,-5,87,-10,5,-23,54,-75,-34,-52,1,9,1,-32,44,14,76,-47,-40,73, 
  /* [2][0][][] */ -28,4,-10,-52,82,35,-82,37,-36,72,-38,-59,33,-5,41,69,63,14,-127,-23,-76,-42,14,35,-3,39,-64,-2,-25,-34,26,74,-53,-77,2,-7,-69,-6,-73,38,59,-9,-16,41,16,76,-18,-20,-54,13,-48,47,-27,-8,8,-67,63,-33,42,26,-32,-31,-39,11,41,30,-104,-3,-67,-14,-39,-63,50,59,50,77,-63,-4,-16,5,96,15,65,-33,-6,-67,-12,-44,-17,-61,-13,36,-38,-42,86,-100, 
  /* [3][0][][] */ 9,-11,-40,-89,15,-15,127,-61,35,91,-56,-28,-2,-13,-36,49,46,42,-3,3,-57,24,39,-64,-12,73,19,12,-10,-19,-77,24,36,-55,-10,-15,1,-23,-23,50,-10,15,8,16,54,-52,-33,-14,49,-27,-27,-41,42,17,56,16,26,-22,-19,-30,19,31,48,11,-54,-29,112,-28,-35,-17,-30,7,-18,-57,-33,-61,9,-37,89,-14,30,-62,11,-74,3,-55,58,40,5,27,-54,-48,-5,-64,-25,18, 
  /* [4][0][][] */ 10,42,21,21,-26,6,-30,-9,7,-19,-3,-6,9,38,-3,41,-17,-48,-41,-55,-2,4,-76,45,1,-46,-13,30,-23,127,-64,-4,11,-18,-9,-25,-4,36,-28,30,10,-18,5,-34,-49,11,62,-34,2,-52,-43,-4,-65,17,57,10,-35,64,-48,36,-23,-64,-2,15,79,16,-38,-19,10,-20,13,-57,2,56,60,54,-35,20,-52,47,3,37,39,-97,40,-53,-15,-66,-4,-47,-47,8,-1,-20,29,-41, 
  /* [5][0][][] */ -16,11,69,-17,-1,-18,0,-12,26,32,-37,-7,-5,-15,23,-18,-27,21,-68,-29,-26,17,-38,16,25,-58,45,-5,5,45,10,66,-6,-73,46,2,-58,-41,-61,0,-46,-10,-27,16,-1,40,-71,32,-26,-3,63,-9,43,-79,10,10,-19,-41,-18,-31,22,41,18,42,-39,10,102,-18,2,-34,12,43,12,25,31,-6,-9,-2,127,53,-46,14,-30,32,35,54,5,97,-7,-26,0,24,14,-18,-39,36, 
  /* [6][0][][] */ 35,-40,80,13,-80,109,-24,-67,-3,-53,-73,82,-13,13,-26,68,10,40,3,-37,-88,11,-90,1,54,-49,-5,54,-127,43,6,-19,23,82,11,-13,-45,-44,38,-21,-29,12,43,10,34,35,-26,-10,4,6,-45,-63,83,39,-4,0,-14,44,-9,15,-1,2,20,18,67,-41,-36,-53,-73,-37,-22,-26,-9,-70,8,-86,78,72,-63,58,-88,67,-3,-34,15,-16,-14,15,-62,73,-72,101,64,12,63,-100, 
  /* [7][0][][] */ -5,-1,-82,104,-46,-10,37,14,-89,19,69,55,0,-59,-11,-15,-15,-11,5,-6,-96,-8,-33,-95,61,42,1,44,48,45,-27,16,-44,-127,46,108,-28,32,-54,22,-2,-29,18,-62,26,52,66,111,-3,35,-29,62,6,-47,-35,-13,14,15,-72,-25,47,12,18,-61,66,-38,93,-12,-66,-47,114,-4,-61,-27,-58,-36,55,-72,68,-7,56,-34,-10,-35,79,9,-81,41,-3,4,12,64,26,-45,62,-22, 
  /* [8][0][][] */ -15,-98,4,6,-17,-7,7,-15,-17,3,29,54,-4,29,-47,-22,67,-3,18,-37,4,-110,-40,4,-44,0,59,-3,-45,45,36,-7,-12,26,-5,-21,-21,-9,34,-55,-4,32,14,-60,19,-20,-8,-30,45,27,64,8,6,12,-36,-14,14,103,-40,-23,-11,-92,-61,-13,-104,-24,3,9,-1,15,34,-53,-44,-127,26,-97,25,-3,-40,9,-26,-5,-5,77,36,-79,-55,58,-62,88,3,-21,-33,1,-1,-82, 
  /* [9][0][][] */ -14,-26,-40,6,-1,44,18,71,-41,0,62,66,-29,46,12,-25,-5,20,-42,-18,-14,33,-26,-12,9,16,28,12,52,5,21,2,-25,-33,-18,48,-39,-11,69,26,-34,-15,7,-8,32,74,-11,29,-60,16,-30,23,106,20,-19,-1,15,-18,64,25,-31,-6,60,31,17,34,15,7,15,-7,-43,1,9,-127,-28,-122,-40,12,32,-14,-6,8,26,-43,50,10,-44,1,19,89,59,39,53,15,-12,24, 
  /* [10][0][][] */ 21,36,27,3,-8,17,-38,-48,49,9,-8,30,3,-8,11,-61,-15,17,20,1,22,3,-23,-30,19,1,-100,40,-11,51,-15,-14,29,9,-38,-7,53,11,16,8,26,-8,41,-51,-4,4,9,-11,7,6,5,-6,-44,13,40,41,20,17,-6,-22,22,-22,-20,5,-16,-37,-69,-23,-40,-12,40,0,-15,21,14,-10,48,-28,-70,16,-11,65,33,2,8,10,-50,-127,25,25,6,29,60,-53,12,58, 
  /* [11][0][][] */ 26,-39,10,9,-66,28,17,30,71,-2,-15,-32,24,19,10,-2,-16,61,0,-30,-12,-1,-8,-31,69,7,63,-2,38,-48,-16,15,17,89,-84,11,23,-29,44,41,-51,58,-35,52,-47,30,2,-14,20,-26,-7,-12,-29,19,-40,71,-47,7,-10,-8,22,12,-18,-41,7,-36,-127,-76,-55,-25,-76,14,44,7,-11,-6,29,62,-101,-31,-16,-29,-15,10,-5,-22,68,73,16,-49,13,24,-7,13,75,70, 
  /* [12][0][][] */ 22,64,-16,-24,18,-8,3,14,40,18,29,-4,-10,-2,23,49,12,-22,-24,39,-17,10,19,57,-19,-35,-127,20,65,-21,36,-21,-44,-88,46,14,10,-21,-13,42,-11,-79,13,20,27,-47,23,12,-55,-18,-38,69,88,-32,27,-79,-9,21,-51,-25,-3,49,78,9,-14,-2,19,15,95,-6,31,28,17,9,-16,14,-46,4,38,-29,35,-69,1,-29,3,11,10,-88,-46,32,-47,6,10,76,7,34, 
  /* [13][0][][] */ -6,57,-82,66,26,53,23,2,38,80,-64,49,-51,-23,45,-42,8,69,42,40,-53,-47,-34,4,38,32,-27,42,19,38,32,-38,-8,73,25,38,30,-49,-50,-49,14,-28,37,31,49,70,0,55,-63,22,14,36,-51,-67,77,72,31,-37,-24,9,31,18,-2,-9,20,123,127,65,8,16,-43,30,28,46,-93,51,33,-67,114,-28,2,-45,62,65,32,32,-12,-14,-14,-21,7,100,42,-12,64,76, 
  /* [14][0][][] */ -32,88,55,42,-75,-64,27,47,-53,-19,73,3,-68,7,65,-26,-41,65,-63,46,-24,12,-94,-10,-26,-8,-49,-120,21,-1,25,106,-33,39,26,-27,-11,-88,-17,-44,61,-36,55,-20,-25,57,-62,54,-40,-33,84,36,-19,37,16,42,-58,38,-6,75,41,89,2,62,50,-12,0,-83,26,62,94,40,-36,13,11,7,53,7,43,41,-64,119,-1,-121,99,-23,14,8,-127,3,-25,23,-19,-8,27,73, 
  /* [15][0][][] */ 90,-20,28,-2,21,-6,-12,-10,19,33,-38,-33,64,55,10,1,-3,21,-75,45,-19,-10,2,39,72,-34,68,20,30,-20,-35,37,63,26,-18,-30,37,48,48,63,49,10,11,26,-34,-102,59,7,-40,-53,-7,7,-12,-32,-28,27,-30,13,-10,28,-5,-50,-22,45,41,35,-51,40,-20,-73,28,10,-22,-127,-45,-75,-22,45,-117,47,52,-64,17,17,-29,-10,2,-27,26,66,25,-57,-27,-2,18,-21, 
};
const TfArray<16, float> quant15_scale = { 16, { 0.0033835265785455704, 0.0030235894955694675, 0.0032027959823608398, 0.0035129692405462265, 0.0041081472299993038, 0.0059873671270906925, 0.0033713697921484709, 0.003088194178417325, 0.0046926080249249935, 0.0043779965490102768, 0.0048420708626508713, 0.0041212649084627628, 0.0041706436313688755, 0.0038275904953479767, 0.0028034518472850323, 0.0037588886916637421, } };
const TfLiteAffineQuantization quant15 = { (TfLiteFloatArray*)&quant15_scale, (TfLiteIntArray*)&g0::quant8_zero, 0 };
const MODEL_SECTION(EI_MODEL_SECTION) ALIGN(16) int32_t tensor_data16[96] = { 4994, 436, -9888, 2914, -3152, -55, -2317, -2857, 5958, -8675, 1157, -3413, 11613, -3848, -387, -5315, 106, 97, -5723, -5061, -57, 1035, -2552, 409, 78, 5108, -12187, -6804, -3866, -6893, -350, 1492, 11124, 464, -7818, -1901, 870, 13011, 3983, 9525, 3239, 7159, -348, 3172, -4948, -426, 10854, -377, -13704, -245, -7589, 4764, 895, -9300, 1064, 5146, -7606, 8001, -67, 4337, -2498, 262, 262, 5403, 12826, -329, 13871, 14788, -2115, -449, 10839, -1524, -382, -1159, -3156, -2519, 18062, 935, 10525, 10896, 13242, -1607, 6376, 10921, -945, -1513, 10726, -6531, 14368, 1002, -10844, -285, -820, 3628, 16756, -1162, };
const TfArray<96, float> quant16_scale = { 96, { 0.00015575464931316674, 0.00024151554680429399, 0.000105564649857115, 0.00024441824643872678, 0.00033218934549950063, 0.00041254234383814037, 0.00014365778770297766, 0.00017213939281646162, 0.00020727736409753561, 0.00014590402133762836, 0.00029964992427267134, 0.00020272708206903189, 7.4110314017161727e-05, 0.0001408904354320839, 0.00016614554624538869, 0.00019957385666202754, 0.00025631129392422736, 0.00033498267293907702, 0.00016301152936648577, 0.00035411835415288806, 0.00035895907785743475, 0.00024871798814274371, 0.00022309247287921607, 0.00018264113168697804, 0.0013792546233162284, 0.00019770141807384789, 0.00018022953008767217, 0.00013094101450406015, 0.00034543205401860178, 0.00010480380296939984, 0.00018480503058526665, 0.00045273685827851295, 0.00011192996316822246, 0.00095853710081428289, 0.00011163089948240668, 0.00020281129400245845, 0.00038468142156489193, 0.00010144695261260495, 0.00029633994563482702, 0.00013212210615165532, 0.0003741067775990814, 0.00017216945707332343, 0.00027664098888635635, 0.00026562082348391414, 0.00013291373034007847, 0.00032443692907691002, 8.0861740570981055e-05, 0.00028066668892279267, 8.710147812962532e-05, 0.00041833778959698975, 0.00016183458501473069, 0.00014653676771558821, 0.00014754597214050591, 0.00011451110913185403, 0.00034931677510030568, 0.00018218184413854033, 0.00011248218652326614, 0.00024242883955594152, 0.00045285790110938251, 0.00026638756389729679, 0.000250585115281865, 0.00027839950053021312, 0.00016488728579133749, 0.00010276778630213812, 0.00023970197071321309, 0.00049565266817808151, 0.0001173991768155247, 9.3667003966402262e-05, 0.00025105776148848236, 0.00030905051971785724, 0.00015034175885375589, 0.00025314060621894896, 0.00057557079708203673, 0.00017918065714184195, 0.00013502185174729675, 0.00017987245519179851, 8.3030856330879033e-05, 0.00020257373398635536, 0.00011587367043830454, 0.00018474116222932935, 9.9956858321093023e-05, 0.00024412923085037619, 0.00013524394307751209, 0.00030492176301777363, 0.00010686906171031296, 0.00030026413151063025, 0.00012054462422383949, 0.00019380332378204912, 0.00010870112600969151, 0.00017545785522088408, 8.020647510420531e-05, 0.00023431623412761837, 0.00028199006919749081, 0.00016827808576636016, 8.2446211308706552e-05, 0.0002445136196911335, } };
const TfLiteAffineQuantization quant16 = { (TfLiteFloatArray*)&quant16_scale, (TfLiteIntArray*)&g0::quant6_zero, 0 };
const MODEL_SECTION(EI_MODEL_SECTION) ALIGN(16) int8_t tensor_data17[1*3*3*96] = { 
  /* [0][0][][] */ 38,6,101,-16,77,18,69,12,-4,23,-15,15,-43,-21,-34,-4,-15,19,-104,-12,-19,21,-25,53,-7,4,24,29,39,17,41,-1,18,-9,38,-30,-6,-58,-34,-12,8,11,30,12,-16,46,-73,-49,85,3,27,42,-105,40,9,-35,14,-23,20,-46,2,-26,-24,-70,-33,-43,-31,-12,-20,13,-33,17,42,8,-39,-7,-22,76,127,-61,-53,8,-97,-48,-11,-40,17,-13,-51,-5,55,-37,1,9,-6,-18, 66,45,127,15,-24,16,127,-68,1,3,-42,2,-29,44,-127,127,-12,72,-10,-29,-16,127,52,117,15,-2,68,107,127,78,127,-44,-52,-10,-60,-7,-37,-100,127,10,-50,-125,-30,-35,58,-37,-19,39,127,-23,46,127,-124,23,-82,-6,-98,-11,-15,7,-2,-127,-127,-111,-39,6,1,-96,-21,0,-60,108,-127,-22,-29,-22,-80,-57,-5,-127,-127,15,21,-77,127,68,-56,32,-127,0,60,-27,15,127,-43,-95, 48,29,5,29,73,27,74,7,-14,30,-19,59,8,15,-3,-32,-21,0,-84,-23,-16,27,12,41,0,4,-56,-34,10,49,26,4,4,-7,33,72,-1,-127,-41,-9,-2,-30,15,12,5,-23,-66,-20,80,-14,30,10,4,86,12,-40,110,-45,7,-50,8,-22,-40,-71,-55,-41,127,3,-22,8,-26,16,38,-8,-25,-2,-12,61,-37,-42,-41,2,-127,-22,19,-39,-1,2,-89,-58,24,65,-29,-18,2,-15, 
  /* [0][1][][] */ -99,-5,127,-58,44,69,10,-18,-14,22,-24,-35,-125,6,12,68,-12,42,76,45,24,-16,50,-26,39,42,119,47,-5,-2,-22,-23,-127,-20,99,-6,3,-73,-52,-127,-3,-18,82,-19,-29,127,-70,-112,87,111,54,-63,-127,123,66,-52,82,-39,54,-18,2,-6,55,-127,-81,6,-19,-69,16,-4,-88,-1,45,122,-1,-70,-127,-10,-50,-65,-121,0,-25,-75,65,27,-120,60,-63,127,68,-65,127,-27,-46,-7, 43,127,94,127,-127,-127,87,-74,127,127,-80,-95,-83,127,-47,30,127,-127,127,127,127,-73,127,-127,-127,-127,127,127,-120,127,-30,127,-28,127,118,-63,127,16,5,50,127,8,-127,-127,127,-24,113,127,126,-127,127,-126,108,107,-127,127,-89,127,-127,127,-81,95,57,-77,127,127,-23,127,-79,-127,-11,-127,-11,127,127,118,8,-127,106,-18,-1,127,119,127,44,85,-127,127,-71,56,-29,-31,-57,-9,-127,-27, -127,-32,59,-24,24,51,5,8,-39,20,-9,127,-127,10,24,26,-23,55,78,27,13,-21,61,-22,43,49,20,-7,4,11,-3,-21,-122,-33,127,127,2,-107,-63,-96,-33,-17,37,-31,-17,-59,-120,-107,75,115,22,-49,96,127,99,-86,127,-35,58,-43,7,-32,-80,15,-108,-6,-51,-65,0,8,-127,-15,35,-82,47,127,-46,11,-43,14,-109,-10,-37,-91,20,34,-107,69,-42,-89,127,127,-45,-47,-89,-3, 
  /* [0][2][][] */ -20,-68,17,-57,50,4,1,57,-39,27,45,-39,11,3,6,-24,2,-10,-2,-3,-23,-20,-4,-39,26,-7,-13,19,31,10,-35,-11,15,-11,26,-47,-13,-39,-49,-74,-38,-37,23,10,55,27,-81,18,-39,-2,-18,-41,8,-39,27,-38,107,-40,1,-29,4,46,3,120,-52,-24,99,-59,19,27,-50,-26,12,-2,19,-15,-103,40,-16,-12,-78,6,-64,-20,10,5,12,-23,-16,15,22,-46,2,-35,-1,18, 1,-84,50,-43,-45,-7,34,127,-94,70,127,-1,-54,39,121,111,-4,-52,123,-24,-46,-50,61,7,20,-43,51,-9,5,44,-60,-61,-1,-25,-120,-8,-104,-65,28,-33,-59,-127,-23,112,82,-32,-113,29,68,-6,-9,-45,67,2,-79,-65,-34,-69,44,-62,127,40,73,45,-62,-41,-18,-107,127,66,-28,35,32,1,18,13,-36,-50,24,55,-49,-11,-76,-64,19,-127,-14,-7,-30,-2,44,-20,13,-96,-80,127, -38,-12,27,-17,50,-4,6,43,-44,2,7,67,-27,-3,5,-31,-6,6,32,-4,-29,-28,-3,-39,17,-11,-18,-12,8,36,-28,-13,-8,-10,38,-12,-14,-9,-40,-63,-71,-20,4,4,27,-19,-127,36,-21,8,-7,-32,22,-60,30,-43,126,-27,3,-21,25,33,42,116,-27,-12,-15,-47,18,32,16,-11,10,-38,19,-13,-33,50,88,-32,13,10,-71,4,-3,15,29,-8,-29,-21,25,36,-26,-41,-11,15, 
};
const TfArray<96, float> quant17_scale = { 96, { 0.0066195721738040447, 0.010264410637319088, 0.0044864974915981293, 0.010387775488197803, 0.014118046499788761, 0.017533048987388611, 0.0061054560355842113, 0.0073159239254891872, 0.0088092880323529243, 0.0062009207904338837, 0.012735121883451939, 0.0086159007623791695, 0.0031496882438659668, 0.0059878434985876083, 0.0070611857809126377, 0.0084818890318274498, 0.010893230326473713, 0.014236763119697571, 0.0069279898889362812, 0.015050029382109642, 0.01525576040148735, 0.010570514015853405, 0.0094814300537109375, 0.007762247696518898, 0.058618318289518356, 0.008402310311794281, 0.0076597551815211773, 0.0055649927817285061, 0.014680861495435238, 0.0044541615061461926, 0.0078542139381170273, 0.019241316244006157, 0.0047570234164595604, 0.040737826377153397, 0.0047443131916224957, 0.0086194798350334167, 0.016348959878087044, 0.0043114954605698586, 0.01259444747120142, 0.0056151892058551311, 0.0158995371311903, 0.0073172017000615597, 0.011757241562008858, 0.011288885027170181, 0.0056488336995244026, 0.013788569718599319, 0.003436623839661479, 0.011928333900868893, 0.0037018128205090761, 0.017779355868697166, 0.0068779694847762585, 0.0062278127297759056, 0.0062707038596272469, 0.0048667220398783684, 0.014845962636172771, 0.0077427281066775322, 0.0047804927453398705, 0.010303225368261337, 0.019246460869908333, 0.011321471072733402, 0.010649867355823517, 0.011831978335976601, 0.0070077092386782169, 0.0043676309287548065, 0.010187333449721336, 0.021065237000584602, 0.0049894647672772408, 0.0039808475412428379, 0.010669955052435398, 0.013134646229445934, 0.0063895247876644135, 0.01075847540050745, 0.024461759254336357, 0.0076151778921484947, 0.0057384283281862736, 0.0076445792801678181, 0.0035288112703710794, 0.0086093833670020103, 0.0049246307462453842, 0.0078514991328120232, 0.0042481664568185806, 0.0103754922747612, 0.0057478677481412888, 0.012959174811840057, 0.0045419349335134029, 0.012761224992573261, 0.0051231463439762592, 0.008236641064286232, 0.0046197976917028427, 0.0074569587595760822, 0.0034087751992046833, 0.0099584395065903664, 0.011984577402472496, 0.0071518183685839176, 0.0035039638169109821, 0.01039182860404253, } };
const TfLiteAffineQuantization quant17 = { (TfLiteFloatArray*)&quant17_scale, (TfLiteIntArray*)&g0::quant6_zero, 3 };
const MODEL_SECTION(EI_MODEL_SECTION) ALIGN(16) int32_t tensor_data18[96] = { 1903, 6201, -311, 2002, 16648, 8643, -529, 2692, 9521, -165, 10481, 5222, 671, 1233, 3741, -568, 2940, 6768, -3246, 10616, 3065, 5611, -2964, 1683, -7931, 3081, 2726, 2675, 7883, 947, 3082, 11805, 1779, 29045, 3719, 2676, 3592, 1979, 5950, 2276, 20398, 1361, 1842, 4409, 1684, 11967, 4277, 10036, 3451, -2286, 3131, 8021, 2232, -1568, 8088, 731, 1609, 20874, 2625, 2125, 2112, 11552, 2661, -649, 17569, 17066, 1744, 4912, 5711, 4435, 3075, 1376, -3504, 5948, 2188, 3318, 322, 9678, 4889, 9748, 2696, 501, 7072, 14706, 57, 11320, 9825, 1859, 197, 2758, 315, 14052, 4306, 2135, 5068, 8205, };
const TfArray<96, float> quant18_scale = { 96, { 0.00019597624486777931, 0.00010219860268989578, 0.00037314085057005286, 0.00020938526722602546, 5.0228303734911606e-05, 8.9173998276237398e-05, 0.00022972817532718182, 0.00012416482786647975, 9.703147952677682e-05, 0.00018973770784214139, 9.1601817985065281e-05, 0.00010210700565949082, 0.00020334332657512277, 0.00019626047287601978, 0.00015907222405076027, 0.0001090458026737906, 0.00021833421487826854, 0.00012486752530094236, 7.5683441536966711e-05, 8.7881504441611469e-05, 0.000115324801299721, 0.00013940074131824076, 0.00013991921150591224, 0.00012386511662043631, 9.0058398200199008e-05, 8.6985361122060567e-05, 0.00020709184173028916, 0.00013812691031489521, 0.00011235386045882478, 0.00026733207050710917, 0.0001930493745021522, 6.0047110309824347e-05, 0.00023226415214594454, 3.4204269468318671e-05, 0.00012786420120391995, 0.00025342422304674983, 0.00015818171959836036, 0.00022825936321169138, 9.7103162261191756e-05, 0.00016721505380701274, 4.9299113015877083e-05, 0.00019484992662910372, 0.00016738666454330087, 7.4231218604836613e-05, 0.00024517899146303535, 7.1336973633151501e-05, 0.00011954865476582199, 8.6847423517610878e-05, 0.00011240193271078169, 0.00015717027417849749, 0.00017201509035658091, 9.217637125402689e-05, 0.0001921953953569755, 0.00015903208986856043, 8.7766689830459654e-05, 0.00015180562331806868, 0.0002293095167260617, 4.8397982027381659e-05, 0.00012098569277441129, 0.00015926812193356454, 0.00017376500181853771, 7.5420262874104083e-05, 0.00022350228391587734, 0.00013752632366959006, 5.3574367484543473e-05, 5.3566058340948075e-05, 0.00023125925508793443, 0.00010238899994874373, 0.00013811633107252419, 0.00011710786930052564, 0.00019856040307786316, 0.00011170557991135865, 0.00016276759561151266, 0.00013295015378389508, 0.00016357781714759767, 0.00018818366515915841, 0.00016185251297429204, 7.9074816312640905e-05, 0.00012255414912942797, 9.501961903879419e-05, 0.00013939748168922961, 0.0002158420393243432, 9.126532677328214e-05, 6.7622757342178375e-05, 0.00017774208390619606, 7.1781912993174046e-05, 7.1885100624058396e-05, 0.00021732442837674171, 0.00023863930255174637, 0.00019723409786820412, 0.00021130054665263742, 6.2767401686869562e-05, 0.00013549717550631613, 0.00018656562315300107, 0.00011199199798284099, 7.5736767030321062e-05, } };
const TfLiteAffineQuantization quant18 = { (TfLiteFloatArray*)&quant18_scale, (TfLiteIntArray*)&g0::quant6_zero, 0 };
const MODEL_SECTION(EI_MODEL_SECTION) ALIGN(16) int8_t tensor_data19[96*1*1*16] = { 
  /* [0][0][][] */ 62,-13,63,87,-127,-9,83,77,101,89,-15,66,8,-4,20,54, 
  /* [1][0][][] */ 7,-2,-104,-24,127,104,-26,34,36,36,-86,3,-122,55,-94,-78, 
  /* [2][0][][] */ -33,45,80,12,41,61,-9,7,21,-10,16,-29,39,-127,-22,3, 
  /* [3][0][][] */ 127,-26,40,-5,-9,15,-3,4,47,9,-68,-42,-75,20,-21,41, 
  /* [4][0][][] */ -26,-35,37,39,-115,-30,-99,-3,-29,32,-30,-60,-23,-8,-41,127, 
  /* [5][0][][] */ -78,20,42,-18,127,24,16,23,-33,32,-6,29,-46,66,-63,-32, 
  /* [6][0][][] */ -127,-5,-44,5,-11,-66,48,8,6,-12,-46,19,-8,1,-21,14, 
  /* [7][0][][] */ 24,127,50,-80,64,3,85,39,50,-27,-17,123,51,5,-6,44, 
  /* [8][0][][] */ -23,-36,-37,16,-40,82,-73,-74,69,-9,43,28,106,25,-127,1, 
  /* [9][0][][] */ -54,-127,-43,76,-75,-66,11,70,2,10,27,35,-91,-46,-55,-36, 
  /* [10][0][][] */ -2,-54,-108,41,-91,86,0,-91,25,-21,55,-1,39,127,-45,42, 
  /* [11][0][][] */ -62,-95,-29,26,35,55,11,41,14,56,17,-61,14,127,-57,96, 
  /* [12][0][][] */ -13,-62,-75,81,-63,-126,24,71,47,68,2,127,-20,-34,2,16, 
  /* [13][0][][] */ -72,-28,-38,4,-21,16,29,14,-19,127,-13,-29,42,35,-1,-31, 
  /* [14][0][][] */ -127,-67,-19,-15,-40,73,-59,-18,99,-25,103,26,55,29,-68,-88, 
  /* [15][0][][] */ 5,-127,88,-72,-50,-26,-9,49,22,-31,-93,-29,83,-34,-38,-54, 
  /* [16][0][][] */ -20,-19,-10,-45,22,16,-25,-19,58,-127,35,-15,-14,-13,-66,-60, 
  /* [17][0][][] */ -71,-58,32,-125,-38,33,-70,31,116,-113,65,70,127,-45,-43,-93, 
  /* [18][0][][] */ 109,-24,-12,-78,-10,-40,117,-4,20,72,-11,66,63,127,44,-105, 
  /* [19][0][][] */ -56,-47,-32,-62,-46,45,-6,-37,36,-10,6,-127,2,3,-26,6, 
  /* [20][0][][] */ 4,42,104,-32,91,-30,-43,91,-127,-89,3,-108,-9,88,-21,-16, 
  /* [21][0][][] */ 17,-127,-92,29,120,24,31,67,-98,-55,-8,22,73,-122,-16,-7, 
  /* [22][0][][] */ 67,-16,61,0,-16,35,53,35,0,99,32,35,-5,32,127,27, 
  /* [23][0][][] */ -55,-127,-31,94,54,40,-12,16,2,23,-21,-112,49,59,124,96, 
  /* [24][0][][] */ 2,4,18,5,36,-30,34,-53,31,127,-85,77,-8,-42,47,-104, 
  /* [25][0][][] */ 53,-127,120,121,24,-16,-37,39,-118,65,42,-63,-14,58,54,-8, 
  /* [26][0][][] */ -5,38,17,63,-57,93,-11,16,-67,-44,-76,33,15,7,45,-127, 
  /* [27][0][][] */ 39,-12,-25,-74,-53,-6,-75,13,-114,-25,-69,-50,-73,50,-18,127, 
  /* [28][0][][] */ -53,29,44,9,12,-40,-127,-11,17,-32,5,4,-23,-37,-36,-34, 
  /* [29][0][][] */ 0,-121,-36,66,-39,2,127,18,81,56,-105,73,16,-51,-56,62, 
  /* [30][0][][] */ 79,-26,-85,60,-127,-4,14,-46,45,1,3,-8,15,40,32,72, 
  /* [31][0][][] */ -127,-31,29,99,-71,-6,-63,13,-50,-46,23,-7,-28,-42,-14,109, 
  /* [32][0][][] */ -103,-73,-88,-26,-103,-35,31,33,127,22,-21,-57,35,36,29,-9, 
  /* [33][0][][] */ 11,-30,-29,116,-127,-72,0,13,-93,-6,-107,-117,-15,20,23,50, 
  /* [34][0][][] */ 25,28,6,29,-89,-16,44,-4,-4,-127,1,-1,-33,-19,32,78, 
  /* [35][0][][] */ 2,-35,-67,-40,-127,23,53,2,64,45,-2,-7,-12,72,6,53, 
  /* [36][0][][] */ -32,14,-78,54,127,15,71,85,-48,-10,-52,-65,46,-44,-12,51, 
  /* [37][0][][] */ -127,66,3,-41,59,-121,-26,6,-36,-45,-11,71,72,-65,45,-107, 
  /* [38][0][][] */ 33,39,35,-34,-99,-53,-127,-33,23,-62,55,62,-115,-60,40,-20, 
  /* [39][0][][] */ 34,-29,63,117,46,80,119,-28,-77,93,57,4,-19,89,81,127, 
  /* [40][0][][] */ 60,64,127,80,12,-39,-12,32,7,127,-48,-7,-83,-1,90,-13, 
  /* [41][0][][] */ 16,20,21,21,-113,127,24,36,-49,24,-93,6,-20,8,61,-124, 
  /* [42][0][][] */ -19,-97,14,17,127,48,50,24,-31,-100,-61,-15,5,1,-26,64, 
  /* [43][0][][] */ 5,-81,-14,14,108,36,1,49,-111,-68,-110,-103,127,-37,-75,82, 
  /* [44][0][][] */ -58,-111,-79,-104,15,42,28,17,-72,-127,-97,46,-46,1,72,55, 
  /* [45][0][][] */ 11,-106,-31,35,-127,52,-73,-45,36,-44,12,-9,8,50,-57,78, 
  /* [46][0][][] */ 49,-45,-33,4,127,-80,12,120,7,-35,33,56,-33,-41,75,-111, 
  /* [47][0][][] */ -86,-20,-17,127,-12,10,44,14,-4,44,55,41,-22,63,-10,116, 
  /* [48][0][][] */ 45,-18,-91,-121,24,-31,23,20,27,-88,-8,12,-66,-19,-48,-127, 
  /* [49][0][][] */ 50,-18,29,56,-4,-35,67,73,-32,127,-36,15,-32,26,125,112, 
  /* [50][0][][] */ -18,-12,16,22,-127,-2,-6,-56,43,-2,12,22,-16,-68,7,4, 
  /* [51][0][][] */ 76,21,-46,-127,-3,94,15,-55,7,16,56,-63,46,89,18,25, 
  /* [52][0][][] */ 2,-31,0,-90,76,-62,14,-16,50,-35,127,-31,42,16,-23,110, 
  /* [53][0][][] */ -39,-84,69,-7,-51,-127,-4,-113,28,90,-106,74,-11,-5,-7,-99, 
  /* [54][0][][] */ 23,67,29,21,-127,-85,-114,-57,-46,20,86,92,-125,23,72,11, 
  /* [55][0][][] */ 50,40,-43,90,-53,53,107,-23,9,127,28,81,34,-25,-7,62, 
  /* [56][0][][] */ -1,-127,-13,66,-35,61,-15,33,45,8,51,26,-44,-21,57,99, 
  /* [57][0][][] */ 35,17,56,-47,97,-12,-32,23,47,-35,18,127,68,-32,85,-35, 
  /* [58][0][][] */ 115,-65,48,-27,5,-26,-69,127,49,72,-23,18,46,23,17,-24, 
  /* [59][0][][] */ -65,-8,32,-57,-5,-65,-50,83,-12,43,-75,-63,-127,-25,82,2, 
  /* [60][0][][] */ 22,-17,10,27,55,4,28,-26,-34,127,-12,59,37,42,-14,0, 
  /* [61][0][][] */ 26,57,35,6,-73,-127,-14,-55,-36,-34,-64,-4,0,-56,61,97, 
  /* [62][0][][] */ -33,79,-36,36,-75,127,-66,34,-69,-6,-28,55,-5,38,92,-21, 
  /* [63][0][][] */ 45,2,-76,-127,-16,-66,88,-2,14,-121,-49,40,-51,114,54,-21, 
  /* [64][0][][] */ 5,46,-6,-35,48,-48,50,127,-105,-67,-74,-45,-32,92,55,93, 
  /* [65][0][][] */ -101,-4,-65,25,28,35,-56,-44,-120,-70,36,-59,-127,109,-106,35, 
  /* [66][0][][] */ -11,50,-22,38,-31,127,-30,29,-45,22,-18,58,-14,30,51,-78, 
  /* [67][0][][] */ 20,-37,-44,31,30,-104,20,-72,60,58,14,118,-53,-6,1,-127, 
  /* [68][0][][] */ 17,-127,-47,72,-44,-35,-4,76,62,40,56,40,-94,58,28,11, 
  /* [69][0][][] */ 16,113,78,-87,-39,-42,-96,100,-72,84,127,100,117,-90,29,-112, 
  /* [70][0][][] */ 33,59,22,-56,113,8,-114,-8,-127,-79,10,45,-55,106,-118,-23, 
  /* [71][0][][] */ -3,-75,-20,-53,100,22,68,32,-107,31,-127,-29,67,112,-44,42, 
  /* [72][0][][] */ -23,39,27,12,-8,-29,-91,-55,10,63,-12,37,20,95,-127,-5, 
  /* [73][0][][] */ 20,-50,2,-39,36,-126,15,-56,93,93,92,-11,-16,-9,-52,127, 
  /* [74][0][][] */ -16,9,-48,127,-103,-41,86,67,60,71,39,107,121,56,-48,53, 
  /* [75][0][][] */ -16,36,-19,21,-65,127,-28,9,-28,42,-43,56,-37,47,54,-70, 
  /* [76][0][][] */ -67,83,-66,-21,-90,40,29,46,40,69,-62,-77,51,-79,-127,26, 
  /* [77][0][][] */ 121,122,-84,127,97,64,93,121,47,4,51,-49,77,99,75,67, 
  /* [78][0][][] */ 30,-46,4,-73,78,-118,38,-58,45,59,127,4,12,-23,-21,101, 
  /* [79][0][][] */ -13,67,-14,25,11,-70,-30,25,-127,4,59,19,97,40,-60,-29, 
  /* [80][0][][] */ -116,55,45,32,96,104,18,-127,-87,57,-30,-29,25,-52,13,61, 
  /* [81][0][][] */ 71,50,-20,27,34,-40,53,82,-127,88,-61,-34,-17,16,82,101, 
  /* [82][0][][] */ 13,127,-42,-28,-9,-26,49,-92,10,29,-11,46,113,12,57,-13, 
  /* [83][0][][] */ 6,-26,24,9,1,11,-30,-71,79,-30,64,5,34,-51,-64,-127, 
  /* [84][0][][] */ -127,-84,-24,12,2,58,64,-3,21,60,55,75,66,72,-63,33, 
  /* [85][0][][] */ 97,-16,127,-48,44,-53,-24,105,-4,108,-58,39,-67,53,103,15, 
  /* [86][0][][] */ -127,62,-24,-9,84,109,26,-26,120,75,98,-21,23,86,-10,-68, 
  /* [87][0][][] */ 13,-47,33,-28,30,-127,31,-34,40,-29,69,-38,32,-52,-31,81, 
  /* [88][0][][] */ -82,86,66,18,108,-58,12,7,-31,-103,89,-73,89,64,100,-127, 
  /* [89][0][][] */ -53,44,-4,26,-43,127,-8,41,-39,-1,-41,1,-21,47,11,-76, 
  /* [90][0][][] */ 26,-74,10,30,127,13,38,16,-12,-62,-83,-14,2,0,-20,55, 
  /* [91][0][][] */ 32,30,6,-13,-41,-84,-127,-1,-32,16,-65,-108,-100,-76,-16,41, 
  /* [92][0][][] */ 66,25,42,12,-127,-54,-23,-17,-7,24,-28,-21,-36,-101,29,-25, 
  /* [93][0][][] */ 24,-97,-127,93,-46,-54,-14,107,126,75,-8,29,-41,94,24,-4, 
  /* [94][0][][] */ 110,14,91,-39,27,-9,35,14,4,62,-5,45,36,-2,127,-6, 
  /* [95][0][][] */ -34,-95,-41,-3,121,33,35,66,-64,-18,-127,-99,58,14,-89,43, 
};
const TfArray<96, float> quant19_scale = { 96, { 0.0042998362332582474, 0.0022422985639423132, 0.0081869335845112801, 0.0045940382406115532, 0.0011020390084013343, 0.0019565308466553688, 0.0050403736531734467, 0.0027242507785558701, 0.002128928666934371, 0.0041629588231444359, 0.0020097987726330757, 0.002240288769826293, 0.0044614742510020733, 0.0043060723692178726, 0.0034901397302746773, 0.002392530208453536, 0.0047903833910822868, 0.0027396681252866983, 0.0016605400014668703, 0.0019281727727502584, 0.0025302951689809561, 0.0030585357453674078, 0.0030699113849550486, 0.0027176749426871538, 0.001975935185328126, 0.0019085108069702983, 0.0045437188819050789, 0.0030305869877338409, 0.0024651109706610441, 0.0058654258027672768, 0.0042356187477707863, 0.0013174695195630193, 0.0050960145890712738, 0.00075046217534691095, 0.0028054171707481146, 0.0055602793581783772, 0.0034706017468124628, 0.0050081470981240273, 0.0021305014379322529, 0.003668798366561532, 0.001081652007997036, 0.004275124054402113, 0.0036725637037307024, 0.0016286773607134819, 0.0053793736733496189, 0.0015651759458705783, 0.0026229689829051495, 0.0019054844742640853, 0.0024661656934767962, 0.0034484099596738815, 0.0037741139531135559, 0.0020224046893417835, 0.0042168819345533848, 0.0034892591647803783, 0.0019256536616012454, 0.0033307063858956099, 0.0050311880186200142, 0.0010618807282298803, 0.0026544984430074692, 0.0034944377839565277, 0.0038125081919133663, 0.0016547656850889325, 0.0049037737771868706, 0.0030174099374562502, 0.0011754536535590887, 0.0011752713471651077, 0.005073966458439827, 0.0022464760113507509, 0.003030354855582118, 0.0025694167707115412, 0.0043565342202782631, 0.0024508873466402292, 0.003571218578144908, 0.0029170059133321047, 0.0035889951977878809, 0.0041288621723651886, 0.0035511411260813475, 0.0017349488334730268, 0.0026889115106314421, 0.0020847872365266085, 0.0030584642663598061, 0.0047357035800814629, 0.0020024159457534552, 0.0014836837071925402, 0.0038997677620500326, 0.0015749380690976977, 0.001577202114276588, 0.0047682281583547592, 0.0052358889952301979, 0.0043274341151118279, 0.0046360604465007782, 0.0013771543744951487, 0.0029728889930993319, 0.0040933615528047085, 0.0024571714457124472, 0.001661709975451231, } };
const TfLiteAffineQuantization quant19 = { (TfLiteFloatArray*)&quant19_scale, (TfLiteIntArray*)&g0::quant6_zero, 0 };
const MODEL_SECTION(EI_MODEL_SECTION) ALIGN(16) int32_t tensor_data20[16] = { -4059, 6817, -14367, 5036, 7621, -14164, -44749, -13805, -2911, 1111, -19356, -15671, 10611, -6500, -6046, -2639, };
const TfArray<16, float> quant20_scale = { 16, { 0.0001358809822704643, 0.00011700114555424079, 0.00012886026524938643, 0.0001102897003875114, 7.5605181336868554e-05, 0.00010503278463147581, 7.8091332397889346e-05, 0.00013314199168235064, 9.55777577473782e-05, 8.1264704931527376e-05, 0.00013298026169650257, 0.00010935881437035277, 0.00010095465404447168, 7.1934453444555402e-05, 0.00010287285113008693, 0.00013325376494321972, } };
const TfLiteAffineQuantization quant20 = { (TfLiteFloatArray*)&quant20_scale, (TfLiteIntArray*)&g0::quant8_zero, 0 };
const MODEL_SECTION(EI_MODEL_SECTION) ALIGN(16) int8_t tensor_data21[16*1*1*48] = { 
  /* [0][0][][] */ 35,48,25,-35,62,71,-48,54,-7,99,2,55,-35,30,-9,48,25,81,41,-73,-59,86,-17,49,71,45,51,49,-49,-50,1,80,-25,-11,-80,56,61,-127,-35,25,15,-32,76,3,-10,-60,-64,-25, 
  /* [1][0][][] */ -33,1,-57,-42,15,80,-51,6,-18,-38,-29,37,59,-36,-27,-22,-19,-25,4,13,-43,44,-95,-34,-46,-45,49,68,-22,-24,40,-36,9,-40,-22,42,23,-56,127,-14,-17,38,-47,-3,40,58,36,14, 
  /* [2][0][][] */ -15,-17,61,-33,-20,-86,28,9,94,58,-46,-8,83,-36,127,87,-81,-11,-43,22,81,-92,-23,-86,-2,-40,43,-69,43,27,-34,19,14,-25,59,23,-61,-2,10,-40,38,31,45,-16,6,-80,92,-54, 
  /* [3][0][][] */ 24,4,-1,-30,15,86,17,-12,57,-49,28,-35,-65,33,7,45,-39,-56,37,-118,-16,-11,-36,-19,-35,81,127,50,-6,-44,35,32,55,-31,91,18,-65,-48,-7,26,12,-3,-25,-11,24,19,-13,-41, 
  /* [4][0][][] */ 92,4,-6,-41,96,83,40,9,61,-7,-112,37,69,-30,14,-28,-74,-121,-19,-88,-19,54,-28,-30,-80,122,-103,127,-46,-53,24,96,45,-60,7,-2,12,12,-22,45,-41,-4,5,60,-34,105,-24,-25, 
  /* [5][0][][] */ 24,-4,-53,-6,-28,71,16,-33,70,53,31,99,63,-30,41,-13,-33,127,-26,46,4,6,-72,-30,44,-21,-87,-29,2,30,12,-18,-44,2,36,16,-49,5,-103,-15,104,-16,20,48,-1,8,-49,40, 
  /* [6][0][][] */ 78,50,10,77,1,-25,84,-60,17,49,123,102,43,67,-51,38,50,-40,-73,88,48,-30,-48,48,-89,103,88,-3,117,72,-12,0,100,-75,-125,6,114,65,-3,9,23,66,73,-36,56,127,30,20, 
  /* [7][0][][] */ -108,9,-16,31,-49,-52,25,68,67,127,-51,-61,-99,9,-23,-8,-54,102,7,123,-47,37,28,35,4,-69,-12,-82,31,45,1,5,-2,-1,18,-14,-18,-51,118,0,10,42,17,-41,60,56,-31,11, 
  /* [8][0][][] */ -7,-105,33,-60,77,-42,64,-39,-49,-111,25,20,-41,12,11,13,-9,0,-51,127,6,34,-19,28,46,1,-77,-29,-122,-6,-68,-123,-11,-71,3,78,5,40,107,18,17,2,81,90,-18,-91,-43,94, 
  /* [9][0][][] */ 11,-47,22,-61,42,69,-17,44,37,-30,-30,-21,12,-34,127,12,13,-100,31,28,-55,49,48,-37,-16,-71,-29,67,60,80,-37,-9,-36,43,-14,108,-18,-46,-57,-11,-13,1,36,127,52,95,-58,0, 
  /* [10][0][][] */ 6,15,-37,-12,22,31,-82,-38,36,49,60,5,-15,-30,33,-50,-48,127,-11,57,3,-5,26,10,-59,50,-4,105,32,13,-37,3,81,-3,-11,33,7,-39,-35,23,-80,7,40,-26,8,48,41,54, 
  /* [11][0][][] */ -27,51,-15,38,52,59,-15,-6,22,22,-127,-79,65,26,-17,-42,18,23,-46,-35,-13,9,100,2,44,1,-12,46,-4,21,-12,58,39,-8,-51,25,40,82,103,38,22,-24,41,5,-55,-15,101,31, 
  /* [12][0][][] */ -43,-12,45,34,-63,-58,11,-4,-43,-52,-125,-1,66,-81,32,35,38,112,87,-127,-31,34,-50,-84,-3,-50,27,-15,23,13,-31,78,52,105,34,-46,-76,-45,38,-20,-25,18,54,-10,38,-20,-47,-47, 
  /* [13][0][][] */ -67,-124,-50,-84,19,13,68,37,-87,47,108,-81,37,44,127,29,121,1,-5,-100,77,-89,127,12,-83,9,-41,-2,-63,-113,-117,27,40,-45,-68,68,10,-69,86,-45,-22,52,78,47,101,-20,83,-80, 
  /* [14][0][][] */ 73,26,-38,-12,-41,10,-82,-16,-7,41,48,31,10,-57,22,-40,44,-96,25,-5,86,-34,21,-6,1,104,-74,4,-51,-19,-76,7,116,18,81,-15,-51,26,-26,69,-6,-45,127,-16,-41,-28,-44,42, 
  /* [15][0][][] */ -51,12,38,6,73,-5,-2,45,41,66,-12,44,38,12,-33,-15,-3,39,-4,-41,31,-40,-45,-43,67,-61,-25,47,-22,15,19,2,-61,8,127,-18,-92,21,48,-14,-36,-32,31,-10,-34,-31,-12,-5, 
};
const TfArray<4, int> tensor_dimension21 = { 4, { 16,1,1,48 } };
const TfArray<16, float> quant21_scale = { 16, { 0.005774941761046648, 0.0049725486896932125, 0.0054765609093010426, 0.0046873120591044426, 0.0032132202759385109, 0.004463893361389637, 0.0033188816159963608, 0.0056585348211228848, 0.0040620546787977219, 0.003453749930486083, 0.0056516607291996479, 0.0046477494761347771, 0.0042905728332698345, 0.0030572141986340284, 0.0043720961548388004, 0.005663285031914711, } };
const TfLiteAffineQuantization quant21 = { (TfLiteFloatArray*)&quant21_scale, (TfLiteIntArray*)&g0::quant8_zero, 0 };
const MODEL_SECTION(EI_MODEL_SECTION) ALIGN(16) int32_t tensor_data22[48] = { 15018, 886, 20184, -624, 13677, -1772, 42243, 516, 12869, 42966, 2844, 28764, 2656, 15860, 39794, 19887, 1252, 994, -63, 62090, -109, 18537, 359, 16747, 19456, 35299, 895, -1199, -550, 13693, 20977, -1071, 13, -612, -2594, 13114, 13376, 39924, -629, 20378, 25393, 2246, 446, 17419, -4015, 63, 46624, 30212, };
const TfArray<1, int> tensor_dimension22 = { 1, { 48 } };
const TfArray<48, float> quant22_scale = { 48, { 0.00010324639151804149, 8.0549332778900862e-05, 6.0486374422907829e-05, 0.0001030943967634812, 0.00011185997573193163, 7.0369598688557744e-05, 4.1277158743469045e-05, 0.00030487417825497687, 0.00010455550363985822, 4.5290234993444756e-05, 5.4835098126204684e-05, 6.9027133577037603e-05, 6.8562403612304479e-05, 7.2742252086754888e-05, 4.6664579713251442e-05, 0.00010130285227205604, 6.266935815801844e-05, 6.0748985561076552e-05, 0.00014149909839034081, 3.4585656976560131e-05, 8.4635437815450132e-05, 7.4372845119796693e-05, 8.9651970483828336e-05, 8.0544865340925753e-05, 6.2282277212943882e-05, 6.4625040977261961e-05, 5.0965685659321025e-05, 5.0904403906315565e-05, 0.00028144760290160775, 0.00010062432556878775, 5.9234029322396964e-05, 0.00016412223340012133, 9.2557151219807565e-05, 0.00017374903836753219, 7.1925242082215846e-05, 7.3784773121587932e-05, 9.204293746734038e-05, 5.021664037485607e-05, 0.00010086964175570756, 8.4890918515156955e-05, 5.792183947050944e-05, 0.00018312197062186897, 0.00015130420797504485, 7.4889016104862094e-05, 0.00019453762797638774, 5.7073630159720778e-05, 4.2939322156598791e-05, 6.387141183950007e-05, } };
const TfArray<48, int> quant22_zero = { 48, { 0,0,0,0,0,0,0,0,0,0,0,0,0,0,0,0,0,0,0,0,0,0,0,0,0,0,0,0,0,0,0,0,0,0,0,0,0,0,0,0,0,0,0,0,0,0,0,0 } };
const TfLiteAffineQuantization quant22 = { (TfLiteFloatArray*)&quant22_scale, (TfLiteIntArray*)&quant22_zero, 0 };
const MODEL_SECTION(EI_MODEL_SECTION) ALIGN(16) int8_t tensor_data23[1*3*3*48] = { 
  /* [0][0][][] */ -72,56,-124,87,-64,123,-79,127,-84,-69,52,-58,62,-124,-14,-21,88,94,89,-109,76,-107,67,-97,-123,-26,108,127,-91,-41,-86,78,113,-107,75,-34,-71,-94,101,-3,-1,-55,99,-68,82,99,-94,-23, -100,51,-65,92,-44,127,-59,107,-113,-99,93,-56,41,-127,-49,-42,122,127,127,-127,96,-57,66,-113,-107,-78,90,114,25,-59,-106,115,127,-127,96,-87,-122,-88,99,-49,-79,104,127,-127,-39,127,-109,-84, -58,76,-10,31,-32,98,-81,79,-74,-51,25,-52,5,-70,-38,-9,44,72,89,-59,60,-36,10,-72,-123,-30,61,57,85,10,-34,35,55,-58,54,-44,-12,-37,45,-23,-127,-47,16,-58,-62,71,-68,-92, 
